id,1,2,3,4,5,6,7,8,9,10,11,12,13,14,15,16,17,18,19,20,21,22,23,24,25,26,27,28,29,30,31,32,33,34,35,36,37,38,39,40,41,42,43,44,45,46,47,48,49,50,51,52,53,54,55,56,57,58,59,60,61,62,63,64,65,66,67,68,69,70,71,72,73,74,75,76,77,78,79,80,81,82,83,84,85,86,87,88,89,90,91,92,93,94,95,96,97,98,99,100,101,102,103,104,105,106,107,108,109,110,111,112,113,114,115,116,117,118,119,120,121,122,123,124,125,126,127,128
data_president_small/5_LNY/naver_0006.jpg,2.126168,-1.1342314,-0.2803124,-0.58250976,0.91361725,-0.84007835,-0.5296446,-0.76914316,1.2753551,-0.8132316,-0.9050597,0.06514015,-0.72261006,-2.0979462,-1.1993791,0.12741533,0.12682784,0.5600407,1.3029901,-0.8586906,-0.56281614,1.7478783,-0.13252333,0.00060655177,-0.30454773,0.52703935,0.120042816,-0.17596862,0.18630376,0.111754395,0.050262146,-0.22475876,-0.5917871,-1.0252771,-0.80786425,1.1022569,-0.4879685,0.98227865,-0.2810858,-0.6359843,-0.74600077,1.0612855,-0.4178538,-0.73545486,0.27063802,0.43964434,-0.45960745,0.25891697,-0.4289291,0.40135732,0.18920003,-0.47116804,0.14711484,-0.58836555,0.6703267,0.026259914,-0.05693912,0.8827182,-1.0021125,-0.8969051,-0.716765,-1.0260985,-0.1455585,1.7447149,0.52268404,1.9485624,1.166179,0.19816636,-0.58801377,0.27651227,0.88856393,-0.38587853,-0.93890244,-1.2366517,0.51548535,-0.16601285,-2.7317429,1.6399047,-0.90486574,-1.0674112,-1.0347652,-0.40297657,0.6436303,0.52179956,-0.985957,-0.7506865,-0.32121438,-0.5025632,-0.3551537,-1.600378,2.182241,-0.20730317,-0.4375703,-0.2094959,0.47556543,-0.60255533,-1.2652545,-1.0068618,0.13525335,-0.33065146,0.21464927,1.6033598,0.71573824,-1.8596876,-0.5182645,0.34482867,-0.53647506,-0.28704944,-0.47682258,-1.4417884,-0.7975737,0.753902,0.01195357,1.097121,0.64275044,1.5672574,-1.138206,0.57480913,-0.73560697,0.70048267,-0.7480566,-0.009345602,1.0889313,-0.7436642,1.5142413,-2.2454524,-0.08299092,-1.3298055
data_president_small/5_LNY/google_0084.jpg,1.6502789,-0.8965795,-0.299832,-1.5124743,0.7268171,0.12406174,-0.20326091,-0.029889613,0.42305067,-0.3414754,-0.42889178,0.49644428,-0.21537736,-1.1269903,0.37131256,-0.5022218,-0.48329684,-0.9608905,1.0806751,-0.730927,-0.51769173,0.6561879,-0.39038742,1.1612183,0.113533095,0.647524,0.38198206,-0.3952082,0.92153543,-0.35609722,0.74822235,-0.14370194,-0.13659157,-0.59334916,-0.79084826,0.8361515,-0.88373595,0.9744066,-0.13575834,0.043581787,-0.023435982,1.2340789,0.6845665,-0.9982041,-0.79633784,0.13388339,-0.305859,-0.21740325,-0.6033146,0.3306531,-0.7025489,0.73985094,1.0692333,-0.82085437,0.36333334,0.14907143,-0.121229604,0.80904216,-0.21058951,-0.6407515,-0.31671897,-0.94920415,-0.3917398,1.5348957,-0.20591307,1.2177444,0.83550817,-0.35257995,-0.45544297,0.40363014,1.1217649,-0.96402013,0.1729237,-1.0471675,0.46656847,-0.18879373,-1.6815252,1.2059505,-1.3253698,-0.2950927,-0.58350325,0.35334262,0.2642324,-0.21984287,-0.3453366,-0.1795384,-0.06561466,-0.03691163,0.42645758,-0.53870714,0.8102127,-0.7049058,-0.4373431,-0.1779969,1.451886,0.37208027,-1.8395908,-0.73423856,-0.09902592,-0.026413165,-0.049864892,-0.008628905,0.9370061,-0.33938277,-0.1824068,-0.035956316,0.594578,0.47410303,0.5097771,-0.9235541,-0.20480327,0.343758,0.10073658,1.1717083,0.47808495,0.4396018,-0.9361268,0.44001856,0.47508276,-0.20037563,0.23505963,-0.48893568,0.37593728,-0.65213627,0.8846677,-1.1861702,0.59087044,-0.56074625
data_president_small/5_LNY/google_0049.jpg,1.1726301,-0.6394533,-0.0063089356,-0.98163456,1.1094477,-1.3681091,1.097082,-0.16372561,-0.3656045,-0.5034571,-1.883363,0.92389685,0.7104705,-1.0018165,-0.2814154,0.6765819,-0.83571756,0.06591252,1.2516793,-0.723156,-0.5084538,1.930314,-0.35517842,1.1636873,-0.6877548,1.8946506,0.283911,0.19126758,0.47239995,0.07076787,0.34497884,-0.22459693,-0.9448511,0.10440832,-2.4169853,-0.59982663,-0.46005553,-0.11963234,-0.95451444,-0.84325683,-1.2401826,0.150868,1.9709456,-0.42549962,-0.003955107,0.8191031,0.7891205,-0.9960613,-0.5841489,0.9123788,-1.0973631,0.20612578,-0.30344638,-0.99094665,-0.59528947,-0.6861149,-0.7860002,2.2702708,0.12007272,0.37210688,-2.0665972,-0.782893,-0.45517042,2.2404442,-0.13049224,0.09489224,0.39512616,-0.95548195,-0.37506205,0.435193,2.4038157,-1.0722333,1.1187594,0.14049077,0.8869316,-0.47260883,-1.3879739,1.3571286,-0.19388135,-0.8005543,-0.86597997,0.051399603,-0.06520278,-0.99527436,-1.0428572,0.81922174,-0.55388594,-0.29043964,0.30933094,-0.9328856,1.7874359,-0.46483174,-0.40601724,-1.5094382,1.4736255,-0.26785257,-2.4725952,-0.5536151,0.49379212,-1.0748656,0.31471485,0.75218666,2.1356182,-1.4451188,-1.4091532,-0.95438075,0.5576868,-0.3020846,-0.89769244,-1.22154,-0.8611948,1.2609558,0.3570935,2.3603005,1.9188621,0.010571539,0.1071841,1.0595702,-0.532532,1.1076838,0.23640488,-0.24993971,0.5494929,0.32750314,-0.62520367,-1.3937923,1.5476493,-0.5173267
data_president_small/5_LNY/naver_0115.jpg,2.0164864,-0.51212597,0.18817939,-2.1939387,1.2520412,-0.25712657,0.7940699,0.68497884,0.34408808,-0.7540195,-1.0398763,0.8086643,0.5162622,-0.228804,-0.48462823,-0.0074250735,-0.68690693,-0.98521113,1.1421704,-1.3335059,-0.70036113,1.2800776,-0.23658514,1.1075145,-0.95998013,1.0163668,0.38551846,-0.18026206,0.08348063,-0.71108174,-0.015777253,0.8977977,-0.9420482,0.5877702,-1.4078245,0.03721178,-0.6858556,0.32742658,-0.42079884,-0.0936615,-0.30349532,-0.22034183,1.3549824,-1.369121,-0.7665795,0.043838095,0.21181352,-0.7975348,0.017991327,0.30368066,-0.581304,0.5477628,0.13936265,-1.0483307,0.25543818,-0.85173696,-1.8463565,1.0081172,-0.061890632,-0.20757854,-2.0015604,-1.0089589,-0.31176722,1.6474729,-0.05799322,0.24727416,0.32636502,-0.142171,0.21900824,0.5291866,1.5938215,-0.6316012,0.7970498,0.049064875,0.4465993,-0.40141976,-1.765421,0.84840924,-0.41530347,-1.3603072,-0.16743448,0.57211995,0.0039332435,-1.2994504,-1.0279031,0.33895418,-0.2804575,-0.71919614,0.613639,-0.17339006,0.895474,-0.57771915,-0.57294565,-1.5162468,2.0623815,0.8075474,-1.9695654,0.0034570876,1.037946,0.2758235,-0.12732282,0.20366985,0.7582707,-0.7336768,-1.669242,0.2878998,0.95360893,0.27740017,-1.0969915,-1.6447856,-0.3442818,1.1337526,0.06180392,0.7594014,1.5870681,0.6309881,0.020601477,0.34756315,-0.17417982,-0.19564696,-0.56617385,-0.29802415,0.7704775,0.03174255,-0.3889984,-0.4510113,0.7182547,-0.57332885
data_president_small/5_LNY/naver_0088.jpg,0.09507955,-0.45494187,-0.223581,-0.37762514,0.25246945,-0.33261028,-0.042131253,-0.29734552,0.14979321,-0.030388488,0.39884922,-0.26553652,-0.29869682,-0.7206017,0.19017291,0.10119347,0.4041992,-0.42793614,0.1106755,-0.50689673,-0.33652145,-0.104694635,-0.6263077,0.22717553,0.2752344,0.03986165,0.6895387,0.2165973,-0.17829184,0.053604215,-0.012064315,0.37188554,-0.06399841,-0.27183494,0.31120142,-0.08084333,0.4516678,0.17555112,0.5520953,0.036149174,0.22479133,0.15924229,-0.017926514,-0.22110616,-0.58052635,-0.35200942,0.12599303,-0.1196862,0.10154535,0.34645236,-0.0923806,0.27112305,0.53526217,-0.47307897,0.19218406,0.4881782,0.20105612,0.12708952,0.06476087,-0.56980544,-0.19199717,-0.34851736,-0.19120324,0.8899965,0.34278837,0.8086212,0.12332263,0.0694359,0.09158442,-0.30207613,0.1767123,-0.9318919,0.37778684,-0.6196221,-0.11455485,0.062926605,-0.17586528,0.431661,-0.4917806,-0.5766094,-0.50959045,-0.21661432,-0.030784033,0.570223,0.40211493,-0.26485294,0.4586621,-0.32629305,-0.65949535,0.6509688,0.25427037,-0.07612535,-0.16489325,-0.24699974,0.34503722,0.2847962,0.05404355,-0.39312902,-0.7310226,0.12317241,-0.43696892,0.52865434,0.4827939,-0.5141589,0.07186248,0.1373099,-0.018293068,0.12136394,-0.09980004,-0.5469649,0.23744489,0.118960656,0.6199403,0.17373794,0.072914824,0.22677085,-0.22735794,0.74728435,0.4455882,0.31515902,-0.00593473,-0.5996101,0.3898055,0.24125078,0.30462036,-0.4738457,0.23366934,0.07349458
data_president_small/5_LNY/naver_0111.jpg,1.8124915,-1.1717188,-0.8212227,-0.7639552,0.37454337,-1.0513774,-0.89285773,-0.91605026,0.08996386,-0.6647328,-0.96752906,0.31748286,-0.4123261,-1.1356093,-0.5040126,0.53439695,0.17666218,-0.26014435,1.1455023,-1.195997,-1.0024625,1.6736019,-0.44272593,0.5555255,-0.0717002,0.64446646,0.41217554,-0.32893205,0.5355171,-0.023973776,0.21994181,0.14868085,-0.3891812,-0.4170471,-0.8832196,1.5517851,-0.1539141,1.0541589,-0.13950148,-0.49773762,-0.015837906,1.1751915,-0.089804456,-1.033735,0.2850794,0.18301162,0.16811708,0.022303823,-0.06784388,0.9487628,-0.4312033,-0.13846886,0.3003398,-0.8245883,0.42563173,0.52908456,-0.61411506,0.9189959,-0.13810189,-0.5415539,-0.78139377,-1.4809471,-0.42022088,1.5624008,0.11360254,1.7223732,1.0643781,-0.10396403,-0.5134667,0.5439235,1.4014173,-0.459779,-0.43166393,-0.9140969,0.9486441,-0.77721995,-2.066833,1.2823071,-1.1131186,-1.0917928,-1.2786876,-0.24533159,0.581855,1.079137,-0.30699068,0.0176939,-0.25440803,-0.31705663,-0.13783585,-1.374195,1.6214812,-0.416199,0.13493915,-0.56707793,1.0237645,-0.23087513,-1.0460923,-0.47202572,-0.022430964,0.06911577,-0.20286505,1.2821387,0.9229454,-1.4475458,-0.32241237,-0.069000706,0.096417055,0.79136944,-0.7501094,-1.0956354,-0.4169532,0.92679614,0.2745291,1.2469025,0.6506766,0.6895927,-0.43351775,0.6864263,-1.0260266,0.27683505,0.121101186,-0.5610522,1.2306885,-0.8692799,0.8118444,-1.801044,-0.019002369,-0.74624735
data_president_small/5_LNY/google_0137.jpg,0.6879692,-0.8996353,-1.0360616,-1.1667379,0.08888215,-0.23275277,-0.68831736,0.25388205,0.59166443,-0.4254429,-0.11948724,0.41644824,0.0044137314,-1.4219348,0.617671,-0.25720322,0.3919884,-1.3475742,0.78857356,-0.8646424,-1.3182322,0.972663,-0.49104166,1.7214383,-0.36168787,0.26633224,1.1000676,0.36258227,0.7750206,-0.5415208,-0.10066983,0.12148012,0.29420665,-0.847455,-0.39162025,0.5165815,-0.9335047,1.364276,0.82082665,-0.3350821,-0.12379369,0.10717496,-0.35491934,-1.3521073,-0.1679978,-0.34011602,0.005611226,-1.0258869,0.28242832,0.40813604,-0.23381422,0.25417432,1.106492,-1.2460299,-0.32371202,1.2747892,-0.12582901,-0.16504647,-0.66622233,-0.2969609,-0.77491844,-0.6642222,-0.8321125,0.8739191,0.5448855,0.7736428,1.4106569,-0.18273914,-0.56539744,0.12577891,0.5490334,-0.13782063,0.19976953,-1.0148418,0.62857497,-0.57512546,-1.4337788,0.34108898,-1.2711172,-0.67081666,-0.6746677,0.30444705,0.27202028,0.005571721,0.11976728,-0.18819621,0.5332368,0.08297685,-0.40418133,-0.54560286,1.1486938,-0.57592434,-0.50848055,-0.2330344,1.2121325,-0.40737098,-1.0678589,0.23827475,-0.3240497,-0.07861159,0.22708191,0.028306633,1.2879068,-0.0068628415,0.27852416,0.4090085,0.7207173,0.0005817041,0.3251374,-0.7668741,0.124596566,0.44967544,-0.3225639,1.1524737,0.09182321,-0.14010873,-0.47792608,1.2234578,0.4629919,0.48086336,0.20798051,-0.034767225,0.6379875,0.23093125,0.70103055,-0.8892941,0.03766378,-0.21140647
data_president_small/5_LNY/naver_0000.jpg,0.975309,-0.25449088,-0.13357688,-0.6659028,0.63887024,-1.0288059,-0.2448452,-0.26135957,-0.40424532,-0.5985161,-1.6755993,1.4026461,-0.98207706,-0.4758808,-0.79418695,0.35838574,-0.54902935,0.1165341,1.2278512,-1.4189733,-0.6622149,2.261478,-0.10585286,0.77748674,0.06606899,0.34260568,-1.1489664,-0.3255259,1.1651293,-0.37223297,0.90485716,-0.87744975,-0.46096486,-0.2734076,-2.054492,-0.50507545,0.53128874,0.18805687,-1.6305273,-1.3525773,-1.5489771,0.6109579,1.0379168,0.14258048,-0.45677978,1.774011,0.1959114,-0.5160514,0.029396601,1.6408439,0.14595903,-0.47235668,0.29859406,-1.084904,0.27558812,-0.5983886,-1.9436334,1.0996664,-0.19398521,0.6157739,-1.2571509,-0.76094663,-0.26868793,1.3962913,0.32878762,1.1746359,-0.23020652,0.790241,-0.16966015,0.550588,1.4772687,-0.5240847,-0.27271354,-1.0519228,0.5733877,-0.08259922,-1.0936258,1.7538978,-0.07280725,-0.1164,-1.6092948,0.42696804,0.04623276,-0.1644287,-1.8510406,0.6267071,-1.2595823,-0.08527352,0.040586427,-1.3510736,3.094163,-0.5666156,0.028588843,-1.1408806,1.8404876,-0.6437357,-0.8617239,0.5518685,1.4273059,-0.44494972,0.28264707,0.5680543,1.9536983,-0.39019012,-1.5765839,-1.1403462,0.24265441,0.29705563,-1.5405432,-1.802014,-1.5090749,0.33919984,0.70475876,1.3331571,1.4436965,-0.2197813,0.6612147,1.3394856,-0.5337266,0.9271675,-0.40515703,-0.6703254,0.70156866,0.29595754,0.23191936,-1.9737829,-0.058614634,0.17765479
data_president_small/5_LNY/naver_0110.jpg,1.6955463,-1.5627468,0.06315944,-1.5741864,1.1980478,-1.0865518,0.35698757,-0.0059210267,-0.21555752,-0.6471047,-0.6887086,1.5534518,0.68458885,-1.0198485,-0.45603463,0.17645715,0.11351047,-0.7183123,1.5545915,-1.1902152,-0.68492043,0.17598107,0.1426636,1.0480767,-0.5035541,0.84140974,0.5775372,0.07867763,0.4466651,-0.63546866,0.35981584,0.44923043,-0.578286,0.47590637,-1.9905512,0.45761815,-0.69664913,0.2912495,-1.5828707,-0.16778944,-0.38618296,0.47400862,1.5290792,0.079634085,-0.63955265,0.23922157,0.64552844,-0.384588,0.48323804,0.30222738,-0.2774189,0.08036249,-0.20474452,-0.876739,0.660816,-0.39311907,-2.1637669,1.6175264,0.3927397,0.79109764,-1.6312128,-1.0254769,-0.2753153,1.2288482,0.27327082,0.7744562,-0.23927781,0.36413392,0.13503572,1.1423557,1.1849753,-0.6789423,0.15811983,-0.02661442,0.7872721,-0.2285485,-1.4955425,0.8797308,-0.8076945,-1.3000807,-1.0692403,0.5395318,0.25060287,-1.2133145,-1.1674644,0.28523436,-0.8091315,-0.8228996,0.62798345,-0.6151064,1.2322695,-0.72747576,-0.2936305,-1.5727423,1.943023,0.433504,-1.9568404,-0.35013524,0.94783264,0.4626757,0.41381645,0.28388742,1.4566445,-0.8203097,-1.5250593,0.16728534,1.0216136,0.41074288,-1.1278821,-2.2812548,-0.7399248,1.473789,0.054369252,0.46370256,1.8277642,0.5274509,0.13266243,0.51646656,-0.11661076,-0.24800065,0.35537726,-0.77743924,0.9710298,-0.13224894,0.050978266,-1.3815408,0.7499541,-0.3035048
data_president_small/5_LNY/google_0030.jpg,1.4918103,-0.65775394,-0.6675111,-0.6584344,1.115396,-0.910052,0.7535769,-0.4279567,0.056671143,-0.35997388,-1.679997,1.1991525,0.5994635,-1.3001062,-0.08595793,0.073908396,-0.4622825,0.18770114,0.770364,-1.1678724,-1.0202019,1.7102369,-0.515684,0.9338174,-0.5208535,0.8795159,-0.24164896,0.3503349,0.48263305,0.10798972,0.5861026,-0.4288512,-1.0861608,-0.17305797,-2.4343114,-0.54502934,-0.6691611,-0.33204988,-1.362333,-1.3863953,-0.6946847,0.22571212,2.3346915,-0.08966038,0.13829948,0.55994105,1.2334065,-1.0500655,-1.1241852,1.3159897,-0.951654,-0.015598632,-0.34003446,-0.75555825,-0.597695,-0.5986028,-1.329243,1.6672744,-0.35633156,0.028413825,-1.7630786,-1.1604685,0.23928538,2.0459998,0.34070194,0.3935005,-0.26274908,-0.51413673,-0.59284085,-0.42076296,2.1855674,-0.9605049,0.6505063,-0.4728825,0.94573975,-0.31022877,-1.2055022,1.0161529,0.10013694,-0.60252243,-0.6964144,0.53478765,-0.13676246,-0.7397448,-1.2060953,0.11918865,-0.701984,-0.27545404,0.68639314,-1.0064992,1.5056468,-0.8832434,-0.25064707,-0.9054075,1.6624905,-0.34496406,-2.464461,-0.2524966,0.057563886,-0.73271334,0.89033633,0.89820814,2.1635976,-1.2178122,-1.7906315,-0.43517637,0.19179279,-0.6701822,-0.89384496,-1.3999118,-0.9185511,2.0908186,0.39887357,1.9514747,1.6267536,-0.38875213,-0.41197497,0.8192893,-0.666067,1.1686765,-0.26371384,-0.12086104,1.537264,0.6366094,-0.5357839,-1.0841271,1.4725115,-0.26611152
data_president_small/5_LNY/google_0112.jpg,1.2719393,-0.5541208,-0.8268543,-1.5015548,0.9041208,-0.33804864,-0.042791873,0.11369172,0.3184548,-0.14877214,-0.062017746,-0.083298095,0.015043385,-1.4099716,-0.087182745,-0.65443444,-0.0037504584,-0.53452635,0.35745677,-1.2448101,-0.62236595,1.192434,-0.17545551,1.236964,0.15281667,0.08097546,0.5748689,-0.42710704,0.79475605,-0.5313564,0.33636233,-0.20353507,-0.3862923,-0.4549556,0.08874114,0.66822994,-0.6175964,0.65120727,0.0668369,-0.532516,-0.1379986,0.26006043,0.86237276,-0.55408746,-0.28282213,-0.94956106,0.41841456,-0.9935578,-0.13493162,-0.08044276,-1.2328049,0.4799596,0.7830256,-0.7930094,-0.63218164,0.48350596,-0.2740585,0.3536846,-0.18291114,-0.97836643,-0.89539826,-0.94380087,-0.60652936,1.2802788,0.38584238,1.1296504,0.7449331,-0.06602058,-0.63430685,-0.1489842,0.77228695,-0.37806797,-0.06285171,-1.1706611,0.49717468,-0.5903037,-1.2348782,0.8032557,-0.8538565,-1.0753772,-0.007830637,0.7884172,-0.075136706,-0.1283646,-0.0053872988,0.07209492,-0.29157773,-0.61010695,-0.12382304,-0.047136065,0.87737584,-0.1550312,-1.1276704,-0.63576883,0.8696329,0.4845865,-1.9138479,-1.1052372,0.60007,0.02639951,-0.49905384,0.48600048,1.2857717,-0.6912144,-0.37980542,0.7946491,0.5672985,0.20368674,0.14582239,-1.4713609,-0.13336946,0.7829548,0.38904455,1.3237357,0.68514395,0.4468591,-0.44234905,0.42449677,0.2896312,0.9240938,0.121572554,-0.49015072,0.6398488,-0.024758851,0.35424566,-0.78605616,0.9415835,-1.0925398
data_president_small/5_LNY/google_0129.jpg,1.109762,-1.0262208,0.17029339,-1.1766464,1.5693576,-0.47169772,0.11391659,0.33845493,0.05546184,-0.54856896,-1.482229,1.1199876,-0.3385384,-0.8952955,-0.80876863,-0.3176704,0.049808957,0.6441847,0.64873683,-0.8126596,-1.1908112,1.7603898,0.22539034,1.424932,-0.49429274,1.1887623,-0.5952537,0.33914343,1.3587327,-0.3261876,0.5787128,-0.286672,-0.81655526,0.09857204,-1.6860785,-0.088741615,-1.059946,1.1067767,-1.6306274,-0.42717665,-1.0244342,-0.35784435,1.9529026,0.57783514,-0.36496925,-0.026214771,0.4936268,-0.67251766,-0.7698986,0.84222937,0.15119286,-0.071642354,0.7406319,-0.991973,-0.52099824,0.07180739,-1.592384,0.15805116,-0.3142656,0.36581352,-1.6731447,-0.56003267,-1.0613961,1.7441196,0.043281704,0.86676365,0.08568768,0.19921272,0.11125625,0.121730685,0.9370183,-0.88106537,0.83445466,-0.6842301,1.4228398,0.1976929,-1.2155832,0.46124914,-0.7806218,-0.64583826,-0.7265036,0.7845571,-0.70434654,-0.5241224,-0.8243432,0.69526064,-0.14649628,-0.3575806,1.3433697,0.16138382,1.2405064,-0.3124477,-0.98463994,-1.4808424,1.8114705,-0.2519511,-1.6051913,-1.2294999,1.0833228,-0.7597309,0.8973424,0.45729983,1.2260479,-0.97478753,-1.2540922,-0.22372843,0.69423044,-0.8210182,0.26265538,-2.2980726,-0.39172858,1.7928085,-0.51363087,1.9065032,1.7466677,-0.21261315,-0.5350255,0.9769164,-0.15271136,0.13335873,0.2256847,-0.374382,0.34242612,0.20827152,-0.31291705,-1.1577802,1.2985076,-0.43566608
data_president_small/5_LNY/naver_0039.jpg,2.3523307,-1.0992488,-0.3999783,-1.2264831,1.0769211,-0.818314,-0.5724082,-0.48161608,0.926379,-1.2501771,0.014140025,0.018778786,-0.6865617,-1.8869733,-1.7125626,0.42997837,-0.031933524,0.52080476,0.9196909,-0.465928,-0.14480428,1.8778468,-0.02506821,-0.15912557,-0.5608386,0.7808489,-0.12949046,-0.56238574,0.38538522,-0.26240796,0.35909152,0.21631823,-0.30751485,-0.8339264,-1.1781002,0.9114667,0.0064590313,0.9147402,-0.8357224,0.07136199,-0.51762235,0.57803947,0.2730552,-0.6058397,-0.09524289,0.16038553,0.273965,0.36514816,0.045148,0.31348634,0.033631343,-0.35824475,-0.22219428,-0.7553824,1.1490622,-0.46417916,-0.39197204,1.7974863,-0.61444765,-0.6182699,-0.60626036,-1.4070901,-0.076199606,1.9013853,0.17736262,2.0950985,0.9855653,0.4828934,-0.043881435,-0.28628704,0.40830004,-0.83974564,-1.0853541,-0.82698405,0.52401227,-0.010129128,-2.6256714,1.462112,-0.78808093,-1.3684698,-1.3269753,-0.2226548,0.8577152,0.3930778,-1.2236491,0.025064051,-1.2165276,-0.13237372,0.5252992,-1.4857883,1.8567927,-0.6242617,0.24563462,-0.6936367,1.1310256,-0.18341303,-1.5231187,-1.257739,0.32210067,-0.51727027,0.19031033,0.92491037,0.6091224,-1.3775762,-0.98355293,0.06314747,0.3887843,0.46893913,-0.564462,-1.5167466,-0.68343925,0.8463279,0.5764253,0.9994222,0.67090845,1.0966922,-0.8176478,0.15728785,-0.52808636,0.21084,-1.0030227,0.3214896,0.74765915,-1.0929232,1.0331031,-1.9029044,-0.31338707,-1.3648275
data_president_small/5_LNY/naver_0056.jpg,2.1077278,-1.0963223,-0.3046667,-1.3178171,0.9433228,-1.0776045,-0.5895809,-0.32261497,0.33120668,-0.64886594,-0.5315132,-0.22590347,-0.630034,-1.5061244,-0.3657822,0.11657372,-0.6233072,-0.17042351,0.8919617,-1.3812762,-0.31932324,1.5936737,0.24242121,0.65068144,-0.12111513,0.79421926,-0.3817103,-0.41737738,0.4703263,-0.20873438,0.22470784,-0.07328133,-0.5335855,-0.3385091,0.0014539417,1.6266745,-0.2592863,0.8238414,-0.3219908,-0.05263745,-0.35117203,1.3707407,0.06847766,-1.3446106,-0.27446714,0.58347255,0.06541346,0.41143122,-0.40954518,0.5705812,-0.52633065,0.009224122,0.27926925,-0.75564206,0.16161163,0.6785082,-0.28992212,0.9094426,-0.3560503,-0.5219125,-0.3343249,-1.3955985,-0.6555029,1.7429894,0.14308682,1.3605148,1.0340395,0.23687194,-0.03718957,0.53580236,1.3932055,-0.41233402,-0.6984095,-1.050266,0.8479464,-0.6616618,-2.0190585,1.5440363,-1.8497902,-1.1880574,-1.0841562,-0.6273724,0.43885374,0.53301597,-0.34677318,-0.8310245,-0.2729574,-0.62035924,0.3285584,-1.2143108,1.3147101,-0.39782047,-0.15083809,-0.27703738,0.9480038,0.18499976,-1.3567654,-0.7824238,0.41461322,-0.07233492,-0.025889447,0.87072515,0.6471415,-1.5595437,-0.14568813,0.18874042,0.2405546,0.33672693,-0.23913217,-1.2441523,-0.19456092,0.58309495,0.10722063,1.2393835,1.1978431,1.2933668,-0.24147657,0.31871888,-0.7608514,0.41477484,-0.04647632,-0.6394795,0.5584081,-0.7977969,0.84814775,-1.9815423,-0.42170346,-0.91444635
data_president_small/5_LNY/naver_0037.jpg,2.1791563,-1.0405983,-0.37169147,-1.4615254,0.7435052,0.06652683,0.26748148,-0.15815374,0.7516871,-0.3576059,-0.24882194,0.20651911,-0.64080197,-1.7849737,-0.47874108,-0.5251954,-0.18753478,-0.59107345,1.0616591,-0.61522317,-0.3560632,1.1077176,-0.50142914,0.36714688,0.4181846,0.23240346,0.7407273,-0.37443092,0.6077277,-0.07694905,0.755522,0.2872803,0.17024188,-0.94657797,-0.4773149,-0.10203239,-0.28329507,0.8358054,1.1317539,0.20816849,-1.0134974,0.79462445,-0.67391145,-1.2424614,-0.26248842,0.45732445,-1.3650525,0.10644103,-0.09992337,0.06431539,-0.47363043,0.4496679,0.41682082,-0.49057353,0.30486205,1.044292,-0.12626828,0.042497966,-0.47580075,-0.34298772,0.26632178,-1.05034,0.09146718,0.95866317,0.2924359,1.5560588,0.95173395,-0.08730293,-0.74199265,-0.11530196,0.23621097,-0.26542234,-0.22794089,-1.3220271,1.0205613,-0.68742794,-1.6449662,1.1516511,-1.2944885,0.16264798,-1.086619,0.34165865,0.12535298,0.28556663,-0.5363925,-0.6869825,-0.5608386,-1.206173,0.20949712,-0.5660256,0.7713033,-0.44946924,-1.1300596,-0.31451514,1.1039871,-0.24325629,-1.276571,-1.0674117,0.2022697,-0.5213089,0.23248069,0.2784405,0.96048987,-0.33847374,-0.065390036,0.86772734,-0.07529935,-0.26676026,0.16350196,-1.523257,0.48188734,-0.3346641,-0.12961988,0.38827413,1.151181,1.4600432,-1.1790961,1.3236288,-0.09971673,0.4300932,0.04552204,0.08789281,0.5087864,-0.2927175,0.06890386,-0.8765723,-0.8771217,-1.122914
data_president_small/5_LNY/google_0124.jpg,0.87068844,-0.2111796,-0.8503273,-0.43746814,1.2956898,-0.8104387,0.41759148,0.070382066,-1.0108947,-0.2900971,-0.9626892,0.8484097,-0.3612818,-0.9145864,-0.58534014,0.8965347,-0.35228902,-0.36537594,1.2731837,-0.21010672,-0.9305266,2.7884307,0.61665165,1.2464457,-1.068908,1.4684852,-0.10304476,-0.84233767,1.1259755,-0.069403894,1.6206244,-0.7575392,-0.28670654,-0.22989342,-2.2586613,-0.06014397,0.8363716,0.08910557,-0.81838983,-1.3485944,-1.3367505,-0.032341067,1.7199792,-0.22741844,-0.07437418,1.8193456,0.34066305,-1.190244,-0.56653047,1.6804615,-0.16538878,0.4892467,0.462236,-0.5218215,-0.37521678,-0.5144372,-2.5285692,2.1130736,-0.018166032,-0.42730063,-1.8025851,-1.0380561,-0.11907445,1.74661,-0.2171365,0.55879146,0.44846186,-0.29053366,-0.6370447,0.8025197,2.123246,-0.7758852,0.5928804,-0.17503074,0.0051123574,0.03772202,-1.5167148,1.6548159,-0.19494905,-0.54228324,-1.4161531,1.311968,0.18128192,-0.07870955,-1.7306467,0.6085669,-1.3120027,0.15624104,-0.03323119,-2.0013292,1.9379029,-0.7992655,-0.36907715,-0.7752483,1.8926345,-1.2467605,-1.1532843,0.018762833,0.867985,-0.91802305,-0.24515906,0.14347643,1.863465,0.36464962,-2.0255575,-0.6429678,1.5226928,0.5427525,-1.2063569,-1.3411263,-1.4679415,1.2386265,1.9180721,1.7672086,1.6223487,-0.2637003,0.32723436,0.19417314,-0.82849866,0.26945812,-0.18560757,-0.64674115,0.98590773,0.019789703,-0.4454531,-1.7597443,1.1469196,0.018403567
data_president_small/5_LNY/naver_0013.jpg,2.01223,-0.91442156,1.0874889,-1.6747167,1.3524565,0.041496545,0.49341053,-0.33992356,-0.050204314,-0.9636226,-0.23128784,0.87592465,-0.9146235,-0.71878874,-0.8903135,1.0021927,0.48611903,0.62006724,1.454041,-1.2996242,0.033034995,1.0660926,0.5229905,-0.3874022,0.14280516,1.2004298,-0.8244978,0.060528405,1.249865,-0.123048164,0.48036197,0.5309073,-1.0075065,-0.08426111,-1.0576395,0.044778723,-0.062270675,1.6079254,-1.0518515,0.44173396,-1.0118785,-0.17719458,1.6282732,0.23588645,-0.5101047,1.3390023,-0.86094624,-0.9692279,0.44833225,0.3620487,0.13783765,-0.25451076,-0.08123612,-0.67527133,1.2689687,-0.5172502,-2.136665,1.2230651,0.34781688,-0.028605174,-1.4283468,-0.51691,0.20005307,0.95456034,-0.778225,1.6088802,0.015372075,0.62671936,0.20343995,0.949247,0.6469346,-0.58172953,0.2709118,-0.8517229,0.5473311,0.7375767,-2.1317928,1.2022669,-1.0168636,-0.116372705,-0.62918353,0.6062846,-0.71971583,-0.8007243,-1.6959887,-0.017897207,-1.5494057,-0.684893,0.51240385,-0.7427112,2.3684726,-0.5701113,-0.20374013,-2.029488,1.0955049,0.1964341,-1.1291732,-0.5197796,1.0619278,-0.5850886,-0.18839218,-0.21174431,0.60800034,-0.89930755,-1.3192164,-0.055132963,0.8911696,-0.13425207,-0.6527513,-1.2836984,-0.6780645,1.0273057,0.62146306,-0.009739382,1.953725,0.06116651,-0.027629472,0.5529143,-0.21272948,-0.7911242,-0.10155441,-0.28571153,1.7678529,-0.35013604,0.17636254,-1.2574524,0.25656244,-0.43204427
data_president_small/5_LNY/naver_0116.jpg,1.7863669,-1.2541984,-0.66723096,-1.4503264,0.51262033,-1.2511926,-1.1584874,-0.38416588,0.36016795,-0.7035905,-0.9731016,0.68627566,-0.37131238,-1.7837389,-0.7591777,0.10724464,0.010854229,-0.51754653,1.0634629,-1.0127878,-0.8578117,1.8288723,-0.26489478,0.8071282,-0.35374427,0.28806594,0.22038338,-0.41567102,0.82223237,-0.05090287,0.38610736,-0.2896182,0.32239234,-0.92851377,-1.3050709,1.2866242,0.14301482,1.3709699,0.43830812,-0.14648433,-0.2441886,1.0952425,-0.791667,-1.220204,-0.010400785,0.5556998,-0.33073127,0.2112668,-0.34835225,0.722543,-0.40789986,0.23238482,0.3134961,-0.9834105,0.18560496,1.0352927,-0.29554364,0.7348779,-0.6254715,-0.35670173,-0.4596881,-2.204104,-0.86070424,1.3127843,0.35618013,1.4440053,1.294907,-0.35109586,-0.7489889,-0.48800588,0.69891834,-0.025252156,-0.72091687,-1.1290333,1.3736366,-1.1037855,-2.4365945,1.2696154,-1.2116517,-1.1561146,-1.6485724,-0.043944776,0.80936474,0.87133807,-0.9300909,0.235113,-0.36461833,-0.06827605,-0.15443051,-0.7225272,1.240505,-0.40679657,0.05359393,-0.534463,1.5077431,-0.5202798,-0.9470303,-0.9365061,0.277341,-0.3361506,0.28349984,1.0246682,0.9425124,-1.0470854,-0.4606038,0.023808807,0.0880709,0.3283986,-0.13319677,-1.4780517,-0.2997319,0.41887945,0.27977425,1.1261411,1.0596174,0.79781353,-0.5586083,1.0223439,-0.5368319,0.37801567,-0.36852545,-0.4626531,0.39951593,-0.86693585,0.2816878,-1.3810519,-0.68778354,-0.79688096
data_president_small/5_LNY/google_0109.jpg,1.2215899,-1.004235,-0.5809868,-0.9735476,0.65654135,-1.2912807,-0.5145869,-0.21181612,0.34629548,-0.8354776,-0.6218021,0.28158566,-0.2555105,-1.1615427,-0.2726121,-0.50043184,-0.46008334,-0.01634362,0.6248255,-1.1809896,-1.0009062,0.8601849,-0.34930813,0.8486728,-0.056582537,0.7157717,-0.021998849,-0.34581378,0.2675946,-0.576756,0.108710974,0.075767,-0.6132525,-0.5257251,-0.7370709,1.335469,-0.18510649,0.53623307,-0.50302905,-0.16794811,-0.02759446,1.2791008,0.5748228,-0.6571109,-0.46237406,0.38803455,0.3181405,0.06089198,-0.6335235,0.7329887,-0.7226437,0.30561104,0.64186907,-0.5904953,0.144365,0.27586,-0.3331774,0.974872,-0.4349957,-0.41115543,-0.47733226,-1.3180768,-0.6332481,1.6561477,0.43138283,1.5590057,0.73192966,-0.040153366,0.23225057,0.06295511,1.3575128,-0.4552717,-0.6595833,-0.7966728,0.60858804,-0.6053949,-1.7156416,1.104025,-1.1733768,-1.038649,-0.6018407,-0.27855873,0.2736053,0.274639,-0.2397342,-0.13504253,-0.45224398,-0.15433413,0.11747055,-0.41770726,1.1155701,-0.775879,-0.21020491,-0.21563894,0.6090738,0.75446224,-1.418837,-0.5324853,0.16698317,-0.036255118,-0.112211704,0.73899007,1.36874,-1.4418435,-0.61228615,-0.019835692,0.09162551,0.41525832,-0.26136258,-1.3202674,-0.21584772,0.96022344,0.2802989,1.2391891,0.8152881,0.82643867,-0.57112217,0.27644965,-0.17141181,0.6405199,-0.19867165,-0.9066342,0.45359528,-0.8106182,0.3922639,-1.336973,0.42016095,-0.726967
data_president_small/5_LNY/naver_0098.jpg,1.4729255,-0.80868673,-1.5353945,-1.2856408,0.82648855,-1.4990106,-0.49416068,-0.15024896,0.56499463,-0.87979704,-0.30518052,-0.57959765,-0.8075113,-1.9698082,0.14479473,0.22571363,-0.68604386,-0.36297095,0.83859783,-1.3757875,-1.407824,1.6163102,0.014344022,0.7584875,-0.10478996,0.5227157,0.58436203,0.047354225,-0.28411353,0.23647799,0.0146415755,0.116759405,0.24010003,-0.4579013,-0.5885523,1.5021269,0.29673576,0.5550338,0.20658925,-0.30640802,-0.36672392,0.856679,-0.79783964,-1.2100995,-0.022808718,0.11488773,-0.009965176,-0.23418608,-0.7116837,0.73741114,-0.5010076,-0.009725083,0.47648254,-0.202623,0.079777494,0.4106297,-0.4117341,0.9652529,-1.2115613,-0.7726314,-0.19142142,-1.6183426,-0.6733179,1.0531194,0.6353368,1.3763148,1.0135168,0.10158721,-0.32161635,-0.31072187,1.3541402,-0.3811754,-0.63175076,-1.208571,0.34133616,-0.21237063,-2.10889,1.4365898,-0.6439504,-0.97716683,-1.1385034,0.5275488,0.6292513,0.7155436,-0.43876073,-0.5420764,-0.21562271,-0.0062105954,0.44951525,-0.7022029,1.2669013,-0.84549195,-0.4414241,0.2990548,0.44258118,-0.035696518,-1.9276943,-0.6075111,-0.48208332,0.1795781,0.31565803,0.7344372,0.91111875,-1.5382055,-0.30621648,0.054966874,-0.15651017,0.33526516,-0.22348973,-0.84541214,-0.7192419,0.4343626,0.2789082,1.0061944,0.73723775,0.91721106,-0.7846489,-0.2809399,-0.24445164,0.9498111,-0.3254363,-0.015407916,0.34506786,-0.5686894,0.88097703,-1.4162842,0.014202382,-0.965011
data_president_small/5_LNY/google_0034.jpg,1.3601352,0.073155165,0.1821284,-0.87971675,1.2588105,-1.0104345,0.20647265,-0.28671342,0.011170585,-0.022468843,-1.4713597,1.4278241,-0.03030146,-0.48536924,-0.45461795,0.35248405,0.124958806,-0.40107012,1.0370617,-1.6327819,-0.32215983,1.1434072,0.4930235,1.6864042,-0.58698386,0.37591025,0.018351622,0.22457649,0.5123735,-0.45767853,0.7706226,-0.7525549,-1.2110605,0.75166994,-1.7036089,-0.71399575,-0.47837442,-0.3786287,-1.5688989,-0.39557344,-2.0394034,-0.38513964,2.1524653,0.059892043,-0.42111987,1.0164983,0.6681639,-0.76100194,0.30564374,0.6480485,-0.96076244,-0.33155748,-0.1327379,-0.5215851,-0.34334102,-0.0032368544,-1.5934857,1.2963353,0.40370524,0.3529439,-2.5564172,-0.10184319,0.070902266,2.1209877,0.37461212,0.32609618,-0.42545426,0.5994102,-0.57893765,0.9958092,1.4980718,-0.1386339,1.0916194,0.08333635,0.053219967,-0.11483386,-0.49106282,0.9510943,-0.90665936,-1.5322983,-1.0942855,0.08688222,-0.26486254,-0.7995676,-1.0217687,-0.29184443,-0.8875476,-1.4352889,-0.23955828,-1.1397622,2.2812123,-0.7181535,-0.39670274,-2.0799344,1.8475317,-0.28334638,-1.8804089,0.5392241,1.4100652,-0.6309712,0.03237103,0.84953743,2.078658,-0.5804228,-1.3168871,-0.19071579,0.057721127,-0.0027852207,-1.5034219,-2.6989152,-0.48727864,1.1066791,0.16575688,1.7942102,1.8267189,0.6846243,0.9589821,1.2232759,-0.4439657,1.3844066,0.19166906,-0.93235517,1.0436412,0.22988021,-0.18562837,-1.8592563,1.3416706,-0.31335703
data_president_small/5_LNY/google_0023.jpg,1.8970288,-1.219763,-0.19453888,-1.2855837,1.0862793,-0.90375936,-0.6295729,-0.37855065,0.7632274,-1.3168676,0.10019418,0.10113267,-0.06275802,-1.5685223,-0.6380465,0.2417732,-0.31498006,-0.28618446,0.9437645,-0.9508945,-0.4083395,1.4615093,-0.33863702,0.15730391,-0.18641527,0.74472237,0.6303568,-0.19810852,0.8682679,0.011220116,-0.12613174,0.5331473,-0.115793645,-0.7296506,-1.1382835,1.3320838,-0.6918007,0.95471925,-0.45747083,0.26940405,0.62770444,0.5850893,0.15266374,-0.99098545,-0.30794433,0.2757747,-0.10212019,-0.2636366,0.6619663,0.12440764,-0.22532238,0.073142216,0.4332614,-0.8527648,0.5403522,-0.29503572,-0.26478583,0.9652494,-0.40431267,-0.66238624,-1.0257095,-1.6371064,-0.4951505,1.584978,0.3376645,1.7376851,1.5260485,-0.022576768,-0.20314443,0.48468253,0.6907976,-0.4491867,-0.7244103,-0.83445174,0.48208618,-0.53809553,-1.8324106,1.6739247,-1.4826709,-0.7114028,-1.35173,0.041407295,1.1448293,-0.0040612277,-0.383783,0.1734539,-0.88691574,-0.09849627,-0.13946061,-0.99126315,2.1794019,-0.20342104,0.2567251,-0.6621512,1.0028062,-0.0022021583,-1.3102473,-0.5614198,-0.17293873,-0.44503593,-0.32720435,0.23326334,1.1705844,-0.7789553,-0.74812543,0.9278165,0.62100554,0.874979,-0.52012616,-0.66811025,-0.5319931,0.84874344,-0.013165064,0.90250605,1.3110334,0.6056193,-0.29509163,0.18441054,0.17645046,-0.51847416,-0.026025541,-0.022777565,1.0452158,-1.0199922,1.1522343,-2.0367334,-0.5130731,-0.23255023
data_president_small/5_LNY/naver_0017.jpg,2.4504688,-1.0566821,0.07915167,-1.1354097,1.0764514,-0.61120725,-0.046403132,-0.71855015,0.53110766,-0.41645712,-0.5531655,0.06693331,-0.7326462,-1.8919506,-1.7042712,-0.15667059,-0.2206892,-0.34989363,0.86714953,-0.81958675,-0.3245827,1.856598,-0.04135635,0.27128133,-0.063596055,0.698126,-0.1629116,-0.63607186,0.7873892,0.1617525,1.0766233,-0.46900707,-0.16678122,-0.8614073,-1.170913,1.2803036,-0.049371082,1.0417981,0.36151716,-0.14562877,-0.39258167,1.2234157,-0.40051243,-0.7688377,0.075063415,0.80504566,-0.5267019,0.76759696,-0.796725,0.46191517,-0.30455047,0.35905528,0.14307414,-0.88273597,0.5065681,0.4930052,-0.15660776,0.9583931,-0.0601912,-0.68433475,-0.34957895,-2.0990024,-0.48522002,1.3331097,0.21517965,1.8847469,0.7003513,0.06507789,-0.903405,-0.18960416,0.4476144,-0.39767238,-0.7606915,-1.2289783,0.8810829,-0.20487192,-2.5626268,1.8945166,-0.98652554,-0.5433031,-1.4615132,0.09224428,0.8089876,0.2997206,-1.0436878,-0.09740417,-0.8128266,-0.15490837,0.3469471,-0.8564402,1.2836143,0.08463815,-0.16456315,-0.29131967,1.5862054,-0.41926712,-1.3954164,-1.5364586,0.38461822,-0.6328718,0.2723806,0.87183136,0.32318968,-1.5169597,-1.2106644,0.54301894,0.25437966,0.38382447,-0.051067248,-1.8192362,-0.57862717,0.60876864,0.5788666,0.8028177,1.4255997,1.7580402,-0.67914915,0.31913424,-0.5478587,0.29327068,-0.25557768,-0.3352244,0.6286987,-1.2911294,0.6707165,-1.8383739,-0.13372941,-1.3949722
data_president_small/5_LNY/naver_0032.jpg,2.6179335,0.13705313,0.52236867,-1.5828346,0.8940859,-0.09292272,1.0014368,-0.29293177,0.581734,0.38431895,-1.2049794,1.2789929,-1.0269941,0.15899059,-0.78186214,-0.103209585,-0.4621891,-0.1059144,0.8204745,-1.4954154,-0.36918026,0.9647976,0.7415259,0.79244363,0.058874328,1.0479172,-0.53068304,-0.7705607,0.67224675,-0.58943844,0.8665801,-0.33591875,-1.399331,0.5082633,-1.3511969,0.5437923,-1.8577943,0.37137637,-1.5138454,0.35281488,-0.92293984,0.26010028,2.0016773,-0.614844,0.014607301,0.78015715,-0.42153448,0.029064897,-0.21223703,0.2273764,-0.6132601,-0.26445955,0.39666808,-0.95432556,-0.1754608,-1.0113993,-1.3474693,1.7678001,0.25749525,-1.0808183,-1.8914524,-0.71578616,-0.48508763,2.0318458,0.6596463,0.12438645,-0.12558353,0.5196512,0.15227747,0.82315135,1.2197783,-0.033627898,1.111586,-0.4248563,0.039249357,-0.94757384,-0.6584219,0.852858,-0.8997262,-1.0549681,-0.564874,0.021857206,-0.1657466,-1.8560624,-1.8681891,-0.31252635,-1.0795237,-1.3044949,0.675804,-0.31169155,1.6350476,-0.3365041,-0.11681917,-1.0271739,1.9536147,-0.25270462,-1.7155457,0.6828072,1.1092596,0.09583657,0.20651813,0.70332164,0.9189956,-0.58355063,-1.7420316,0.35893947,0.36817512,0.12604833,-1.2882339,-2.2144382,-0.50915605,2.3743577,0.25523818,1.4083593,2.2498314,1.361703,0.3213695,0.2801848,0.33172324,0.47777984,-0.3494497,-0.4592334,0.69841707,-0.43479362,0.06331252,-1.7508589,1.1666067,-0.24579225
data_president_small/5_LNY/google_0046.jpg,0.95290196,-0.40922666,-2.0608258,-1.2900295,1.3492692,-0.8670223,-1.0443075,0.8103421,-0.37476543,-0.20701978,-1.1461922,1.4031111,0.6682963,-1.0905216,-0.044670746,-0.050528668,-0.6235527,-0.4855798,1.2101971,-1.3844334,-0.6557535,2.0460682,-0.8808647,2.0993247,-1.4292802,0.6574324,-0.17046623,-0.046788722,1.3103564,-0.7133584,0.47498924,0.50744134,0.51295805,-0.456495,-0.632371,-0.15143585,-1.5269716,-0.16711855,-1.1582017,-0.9561006,-1.1867834,0.38412535,0.97057295,-1.3044491,-0.0053883493,-0.25806123,0.46691093,0.24591087,0.2032402,0.71956563,-0.030395098,0.47301567,0.11770651,-0.7935289,-0.52222055,1.0643047,-2.1325812,-0.67675465,-0.45575312,-0.43793884,-2.03866,-0.44933528,-0.2626997,1.6642388,-0.29763153,0.26755792,0.46140552,-0.4139415,0.47720194,-0.47609755,1.9080138,-1.3472614,0.4668536,0.18620323,1.2141538,-1.5556773,-0.6547303,0.8871,-0.9885355,-1.8973843,-0.3389558,-0.24163911,-1.6378897,0.18166335,0.38234752,0.2223781,-0.39032105,-0.5751011,0.8248911,-0.5454191,1.0466127,0.63889223,0.18364564,-0.5203727,1.6935984,0.7016624,-0.5832565,-0.3602264,0.08134739,-0.36675173,-0.4844674,0.32758212,2.8073874,-0.6997018,-0.35855865,-0.73974925,1.1423801,0.33275023,-0.7238758,-1.2121828,0.16405801,1.005393,-1.2080673,2.2125802,1.214646,0.35015476,0.19871995,1.3288358,-0.7893795,0.5606648,-1.2128404,-0.28660443,0.7015031,1.2749665,0.36260986,-0.73737943,-0.188683,-0.4422102
data_president_small/5_LNY/google_0037.jpg,2.8194675,0.17891318,-0.41522124,-1.4659377,0.9391555,0.6010242,0.6179966,0.17780611,0.3715951,0.13366187,-1.3075802,1.4961401,-0.76277125,-0.5301918,-0.7255275,0.11557038,-0.92736435,-0.25538808,1.0805467,-0.8454169,-0.02677805,1.5692497,-0.62140805,0.5833879,-0.097619444,1.3644462,-0.26980838,-0.6910145,0.73577845,-0.24889159,0.95381725,0.009815715,-1.8411674,0.40713516,-2.835963,-0.1765262,-1.0774478,-0.012906849,-1.1403909,-0.59174144,-0.5224763,0.58944553,2.4211643,-0.74224126,0.054399252,0.9961115,0.4891108,-0.42389202,-0.28388435,0.33368745,-1.227585,0.53955364,0.15478136,-0.70983523,-0.24940443,-0.85040957,-0.9610981,1.4856778,0.63108754,-0.3933288,-1.9109253,-0.35812682,0.44371524,2.7265136,0.8420642,0.45511615,0.187515,-0.23055702,-0.7317022,0.1014051,1.8022294,-0.23798507,0.5663585,0.31582862,0.6365581,-0.5286837,-1.5354509,1.3247916,-0.56334436,-0.31227532,-0.9236182,-0.061872266,-0.04502666,-1.2102928,-1.3146918,-0.14791378,-1.5842402,-0.21850067,0.754768,-1.0315343,1.5508126,-0.8175668,0.22294796,-0.98232585,2.2585118,-0.38272145,-1.9049346,0.00046426058,1.1870272,-0.3967932,0.3580181,-0.22500578,1.0836008,-0.41150132,-1.8631964,0.1679273,0.037051138,0.5065782,-1.1794063,-1.2147377,-0.24633728,1.5071641,0.4866936,1.6844003,2.1540616,0.61777747,-0.59488297,1.0252867,0.20585659,0.5312567,0.038675107,-0.10874857,0.8887346,0.34234977,-0.542931,-1.7856475,1.2403877,-0.7709732
data_president_small/5_LNY/google_0041.jpg,1.3017434,-1.0913916,0.093823716,-1.5282892,1.1284479,-1.2649317,0.03832722,1.0308846,-0.36637866,-1.157256,-1.251316,0.99939394,0.11267072,0.08203556,-1.8423349,0.49673533,-0.20928437,-0.5043992,1.2114393,-1.423276,-0.8022646,2.1145499,-0.61897933,0.3766673,-0.3834224,0.74169075,0.4143343,-0.25110015,0.4989115,-0.59948725,-0.046367213,0.52736646,-0.63596183,0.091403134,-1.8214478,0.16569224,-0.082999125,-0.2858787,-1.5413167,-1.0071776,-1.0588824,0.12806371,0.49141407,-0.28665143,-0.5381037,0.029138982,0.84284997,-0.8578514,-0.16637926,1.2114168,-0.8665511,0.5670577,0.033409,-1.1431993,0.00024619885,-0.5757676,-1.6067834,0.855506,-0.11087485,0.3093819,-1.944119,-1.1961615,0.55836815,1.812675,-0.10600606,0.89498353,0.14762402,0.22364888,0.21158105,0.50694156,1.4996624,-0.8790293,-0.39420217,-0.4016435,1.3939451,-0.59789944,-1.544452,1.4792212,0.20542839,-1.3107268,-0.8361728,0.15841846,-0.036197122,-0.41223103,-0.4410297,1.2269349,-1.0167828,-0.8061318,0.5262617,-0.13870992,1.6455132,-0.54262125,-0.4816164,-1.9189881,1.649758,0.9552763,-1.4041932,-0.68332183,1.6428361,0.14937633,-0.4199652,1.5564653,2.1578274,-1.291643,-1.1442851,-0.1295186,0.21522747,1.1970702,-1.8066641,-2.109207,-0.48059678,1.0548469,0.5023252,1.4095933,1.788268,0.31643417,0.3945167,0.99725956,-0.90214306,-0.35329995,-0.11512771,-0.6508609,0.09094049,0.19329442,0.0024363808,-1.3949639,-0.36124763,-0.6021206
data_president_small/5_LNY/google_0014.jpg,2.0289562,-0.8965777,0.08900576,-1.7124943,0.4988782,0.2983376,0.20564471,-0.41567552,0.061755434,-0.62332726,-0.9017358,0.7100479,0.023057722,-1.5957155,-0.26446173,-0.5040469,-0.47733417,-0.8902077,0.81945735,-0.8428849,0.2672719,1.3082536,-0.4975939,0.58183485,-0.2081587,0.42875332,-0.1399117,-0.6293229,1.4207414,-0.27363497,0.99029386,-0.22239895,0.14928477,-0.92884535,-0.55596197,0.6520807,-0.70314926,0.76342034,0.7460538,-0.19192718,-0.23009321,1.1129414,-0.052809507,-1.2678144,-0.34797075,0.82002896,-0.8967102,-0.28987664,-0.7065471,-0.24464098,-1.0514778,0.583533,0.35674393,-0.9721964,0.49491438,1.1032166,-0.28425625,0.6326489,-0.05566658,-0.8842049,-0.6794633,-1.560945,-0.45129892,0.99125624,-0.462514,1.5928352,1.27708,-0.5247567,-0.96947116,0.4754752,1.2451416,0.060049504,-0.25649527,-1.4948221,1.1095288,-0.7746586,-2.275195,1.3210515,-1.5284828,0.19702165,-0.56552684,0.12597618,0.2873179,-0.3127336,-0.38222846,-0.23569266,-0.8383662,-0.42857683,0.141859,-1.0491763,1.0971164,-0.6313047,-0.94958186,-0.5412895,1.400482,-0.0521806,-1.3174019,-1.1063713,0.71545917,-0.51614124,-0.18844281,0.13035834,0.65386957,0.071107455,-0.603997,0.46607447,1.0438607,-0.23998871,0.45463663,-0.5468154,-0.26056367,0.360429,0.26601082,0.6636468,0.99915004,0.81313825,-0.5752078,0.90341157,-0.25893483,-0.49933216,0.5266631,-0.035959683,1.3759761,-0.97242963,0.23013735,-1.0352877,-0.18354638,-0.62920856
data_president_small/5_LNY/naver_0117.jpg,2.2557325,-0.91215754,-0.16056779,-1.9755669,0.9310537,-0.4870301,-0.6380255,-0.11850406,0.44833088,-0.9039078,-0.9528934,0.64386946,-0.42015558,-1.4266086,-0.7899618,-0.9066641,-0.380281,-0.6023251,1.3763509,-1.3007348,-0.6918454,1.518474,-0.17469648,0.5586626,-0.26697996,0.60903156,0.114827335,-0.28849193,1.1145614,-0.47278887,0.24305478,0.19367854,0.1790187,-1.1028618,-1.5378745,0.40025827,0.45418322,1.1332793,-0.00985688,-0.21636951,-0.2554109,0.6981674,-0.19514033,-1.0812718,-0.49750093,0.8654486,-0.4651067,-0.15083133,-0.26002482,0.28561932,-0.72810644,0.35907668,0.07381634,-0.9395606,0.3019694,0.8556247,-0.195475,0.8710735,-0.7515688,-0.07823988,-0.37736496,-2.0133908,-0.30662188,1.7389702,-0.32844764,2.0061,1.1313199,-0.34146178,-0.06772521,-0.41099456,0.82122236,-0.120240316,-0.6553088,-0.5644912,1.3072667,-0.6690398,-2.3319125,1.193872,-1.0574899,-0.4581374,-1.4062588,0.6087178,0.7824066,-0.0030170474,-1.1979038,0.14734334,-0.6100157,-0.45372325,0.48113224,-0.6628954,0.81790113,-0.93346184,-0.156987,-0.85183483,1.9246184,-0.05380129,-1.661017,-0.74261665,0.35789737,-0.83505404,0.023528822,0.101458855,1.1363683,-0.4749693,-0.6815934,0.32277834,0.34437844,-0.08160491,0.23543847,-1.531688,-0.55079067,0.12363691,-0.21419257,1.2681992,1.0615292,0.94775474,-0.7994963,0.7337394,-0.16393149,0.22079375,-0.5341801,0.049899254,0.43175024,-0.58815384,-0.07630752,-0.5616462,-0.3097995,-0.69894546
data_president_small/5_LNY/naver_0114.jpg,1.635573,-0.4306637,0.7647692,-1.7256366,1.1210909,-0.24918759,1.2724243,0.043366376,-0.30690163,-0.28498927,-1.1601444,1.3018967,0.12402317,-0.45503786,-0.64337695,-0.07209418,-0.11625768,0.5648384,1.1629491,-0.8939253,0.073330134,1.1224482,0.007585082,0.27700067,-0.76103866,1.089818,-0.5698806,-0.031524673,0.3333667,-0.8654719,0.5475534,0.574071,-1.2063931,0.45537668,-1.5606879,-0.865233,-0.11818342,-0.16597459,-1.0986547,-0.69621277,-1.3496548,0.6403677,2.1255245,-0.48653516,-1.0159179,0.3301079,0.157475,-0.8965275,0.34530288,1.0668138,-0.5044591,-0.025915977,-0.066487975,-1.139761,0.7479449,-0.9123269,-1.6519341,1.5836388,-0.033501856,-0.060736515,-1.9884799,-0.7634269,0.29958582,2.3641322,0.09417363,1.0753404,0.14572187,0.62517697,0.8023274,0.94836545,1.1808329,-0.15010713,0.8631377,0.017514937,0.38572654,0.1442872,-1.8544731,0.15288699,-0.6540703,-0.57452524,-0.8590856,0.8804443,-0.3300071,-1.0247694,-1.0959039,0.5077932,-0.997668,-0.7187484,0.24802247,0.39746672,1.2741635,-0.29161203,-0.905102,-1.040455,1.4855069,0.13610217,-2.079245,0.07768978,1.7127638,-0.6515077,0.29516226,0.14333853,1.024938,-0.9778164,-1.7045479,-0.16627184,0.22765033,0.024027016,-1.0414271,-2.0977082,-0.5519241,1.4576043,0.21185458,1.5970747,2.1418052,0.7092327,0.3568564,0.22657554,0.030994516,0.5876071,-0.08208519,-0.47575086,0.6814509,-0.09740611,-1.0498207,-1.2396578,0.98909146,-0.91207904
data_president_small/5_LNY/google_0086.jpg,1.036142,-0.10427996,-0.6941773,-1.1020427,1.613814,-1.4945818,-0.22245637,0.3646918,0.17610267,-0.4258324,-1.3813478,1.2303705,0.33721346,-1.5015757,0.14877675,0.069599606,-0.91411185,0.52799463,0.7158072,-1.9298608,-0.8489586,1.8304968,-0.20384958,1.2805195,-0.562454,0.8493344,-0.8567165,0.6368381,0.62420374,-0.62827915,-0.02542942,-0.4304926,-0.91410947,-0.22364005,-0.87099636,0.66927546,-1.1658424,-0.854273,-2.4906147,-0.54750896,-0.41535613,0.24910346,1.9735316,0.22899744,-0.024397815,0.5462492,0.9913273,-0.7368678,-0.5029677,0.71531856,-0.91667956,0.32593328,0.06401061,-0.59030527,-0.17237331,-0.6968421,-1.5779907,1.1294239,-0.84170896,-0.66901606,-1.8949907,-1.3978287,-0.2578348,1.5488749,0.3736297,0.74512583,0.06600182,0.22470511,0.6027809,-0.55485964,2.1129298,-0.6124301,-0.15778668,-0.33089867,0.36140126,-0.6189654,-1.1344885,1.390604,-0.2852531,-1.0397301,-0.23671511,0.41551843,-0.16663906,-1.0918492,-0.76125544,-0.36971664,-1.3335128,0.01687245,0.8631749,-0.15968673,1.4586132,-0.63888854,-0.015910119,-0.40595174,1.1158769,0.21608867,-2.1064398,0.15178199,0.7717423,0.16867425,0.4277147,0.7157185,1.8886456,-1.0528833,-1.9590816,-0.13456695,0.41558295,0.25537053,-1.1341798,-1.3194184,-1.066425,2.383926,0.29746193,1.7176142,1.9703089,0.25234866,0.7014123,-0.3204218,0.22959313,0.718217,-0.31479377,-0.4190904,0.75819886,-0.09855947,0.3234083,-1.2845774,1.168215,-0.14270051
data_president_small/5_LNY/google_0055.jpg,-0.16600136,-0.020406902,-0.45533547,-0.9544657,-0.16565143,-0.105811775,-0.10333918,0.25724804,0.059110336,-0.12729505,0.06756558,0.6354689,-0.24509177,-0.46174544,0.56134254,-0.5075149,-0.2166532,-0.68792987,0.4803444,-1.0006707,-0.98298836,-0.25052655,-0.60112894,0.95386386,0.39948663,0.061704528,1.0266454,0.3108887,-0.45608044,-0.67182255,-0.47270343,0.029258927,-0.16638726,0.05159547,0.17986989,0.5766297,-0.21762261,-0.17859861,1.3345141,-0.704316,-0.19146007,0.54906493,-0.42516765,-0.30872098,-0.061823897,-0.38288617,-0.21841098,-0.72845984,-0.2615229,-0.07247311,-0.48365313,0.893344,0.6842386,-0.6231488,0.048032083,1.2484055,-0.0073315464,-0.3492632,0.27169657,-0.5341125,0.37201807,0.1996754,-0.116962306,0.1128744,0.7479297,0.9434132,-0.14963692,-0.11678164,-0.9226852,0.30512387,0.5879036,-0.10362493,0.46320087,-0.8435736,0.5619222,-0.3880329,-0.7536061,0.615148,-0.23039225,-0.16496488,0.00026331097,0.13316658,-0.60707766,0.5579026,0.50171244,0.0018555671,0.46693376,-0.13262802,-0.37293014,0.14396389,0.37307468,0.09680209,-0.74943835,-0.1881243,0.37417984,0.6137727,-0.45312318,-0.7267782,-0.28968143,0.5628398,-0.58546346,0.29472148,0.67189837,-0.5888855,0.43066788,0.108952865,-0.2193574,0.21630017,0.030291945,-0.30935976,0.4831233,-0.19559212,0.35351,0.4085422,0.21476986,1.0245379,-0.5569918,1.3257427,0.74075466,0.67804563,-0.23829027,-0.47986135,0.77743155,0.42998123,0.555422,-0.5534178,0.8778009,-0.72772086
data_president_small/5_LNY/google_0003.jpg,2.3798795,0.42093316,-0.28351516,-2.2038133,2.138196,-1.018764,0.6046241,0.45894197,-0.17575222,-0.61212474,-0.231736,1.6945951,-0.06104912,-1.0250791,-0.8293607,0.46437645,-0.5076846,-0.25332975,1.5292559,-1.3800772,-0.87555933,1.7598321,-0.031376865,0.33939365,-0.9026139,0.40976933,-0.07151173,0.27696574,-0.51346016,-0.09238382,0.23401077,0.41522154,-0.91542345,0.31176803,-2.397355,-0.21012317,0.449348,0.19100712,-1.8556364,0.26541668,-1.052453,0.13960804,1.6395086,0.45254594,-0.68206745,0.36424428,0.26295123,-0.8972163,1.2932503,0.7194854,-1.0644331,-0.050045636,0.04416977,-1.2081147,-0.06685586,-0.7076401,-1.5572505,1.8407984,-0.28114974,-0.029571567,-2.447606,-0.33345842,-0.6065699,2.1979883,0.6303001,0.5804044,-0.0810372,0.75149137,0.47911155,0.38808396,1.1944947,0.22596902,-0.2952477,0.5045448,0.12460585,0.11887926,-1.5626296,1.0071851,-0.9788423,-1.0889968,-1.1530803,0.9322667,0.14935392,-1.0533264,-0.98878455,0.016821824,-1.3787056,-0.20231546,0.07056527,-0.22055091,1.4048296,-1.0026411,-0.04675957,-1.7467937,1.98716,-0.5180936,-2.1339552,-0.21484926,1.4815032,-0.2759794,0.25857806,-0.23886743,1.0118084,-1.69793,-2.2603698,0.09829162,0.8798351,0.21512747,-1.1927938,-2.18343,-0.7371145,1.3533016,0.05952745,1.7482896,2.3559854,1.234166,0.63989174,0.096896775,0.35404122,1.5129924,2.3320317e-06,-0.10840039,0.35031193,-0.115147814,-0.20030095,-2.133281,0.3911599,-0.38850832
data_president_small/5_LNY/naver_0081.jpg,1.0804651,-1.1167263,-0.94682753,-0.29841655,1.0799284,-0.8944558,-0.62287223,-0.19508804,0.55619854,-0.43719977,-0.38424456,-0.5332661,-0.6851678,-1.4534132,-0.039159626,-0.21277983,-0.29053837,-0.25836536,0.06408199,-0.99598956,-1.1623254,1.541132,-0.5033831,0.8766787,0.15599285,0.8028281,0.18992968,0.36237806,0.12191077,-0.14528047,0.5217515,0.16963899,-0.3812312,-0.42803288,-0.28815383,1.0833999,-0.5527742,0.370416,-0.18049341,-0.36242738,-0.21283607,0.66860324,0.5489425,-0.7297278,-0.26700443,0.46340504,0.6480128,0.117567845,-0.85333145,1.0502242,-0.016003676,0.1000732,1.1802143,-0.62804985,0.17309085,0.010226453,-0.57688135,0.5286325,-0.46055406,-0.95736367,-0.7123088,-1.3396606,-0.66538316,1.6804135,0.7027432,1.1357629,0.51062024,-0.058709905,0.2558699,-0.40863016,1.0690432,-1.3176918,-0.51037693,-1.140337,-0.38502315,0.0702893,-1.0463489,1.2542193,-0.7675125,-0.50750303,-0.74870217,-0.36510056,0.67497903,1.0946625,0.106114954,-0.9145297,0.3276405,0.020389542,0.2550043,-0.6122391,1.2138535,-0.6493624,-0.6946424,0.34545165,0.92462647,-0.013277102,-1.137714,-0.6088366,-0.56366074,-0.041898984,0.11469957,0.68195456,0.8906284,-0.9297984,-1.0274577,0.45821553,0.19199356,0.09151062,-0.22671272,-1.1445544,-0.1269125,0.90959,0.18640819,1.3846765,1.0415395,0.58212197,-0.5733825,0.21040258,-0.02750016,0.23371817,0.0016222149,-0.50247645,0.40917313,-0.11034307,0.7658382,-1.821514,0.596801,-0.43102187
data_president_small/5_LNY/google_0108.jpg,0.6899147,-0.09149265,-0.18616112,-1.8209195,0.9384445,-1.1918287,0.05594117,0.66300476,-0.5192583,-0.8062899,-0.8058562,1.1764482,-0.757451,-0.9204222,-0.5832341,0.5355065,-1.7279357,-0.07449673,0.50404906,-2.1267617,-1.2150936,1.6252577,-0.09627381,1.3139101,-0.2810764,1.1451564,-0.4244051,0.12970772,1.1335317,-0.28372163,-0.019757263,-0.039176274,-0.6621567,0.66309136,-1.6172942,-0.11930458,0.09526072,-0.258694,-1.5215585,-0.47682038,-0.49162054,0.14188287,1.5010647,0.46567988,-0.6934847,0.86976546,0.550399,-1.3754778,-0.22115307,0.34107322,-0.7661204,0.5278358,0.82833564,-0.98993844,-0.1862311,-0.08459681,-1.5533695,1.2008158,-0.0049769953,0.45267835,-1.0443835,-0.8625419,-0.84029895,2.011003,0.34716806,1.3811735,0.040767044,0.25725105,0.65754944,-0.426657,1.8153274,-0.5982886,0.1250184,-0.0649483,1.3822454,0.15780917,-1.4081386,2.3134665,0.053228058,-0.6988134,-0.6711415,0.91480076,-0.79831696,-1.084599,-1.1549771,-0.060570892,-1.699225,0.13236149,0.347272,0.112250194,1.3947955,-1.0588231,-0.3294077,-1.2877373,1.8727881,0.61074996,-2.1231103,-0.27684474,1.2914159,-0.37670118,-0.38349646,-0.60650414,1.3131896,-0.17252505,-1.48305,-0.24631532,0.5617867,0.35433698,-1.6720915,-1.4934337,-0.23520544,1.3377339,0.6278672,1.3205395,1.8858119,0.7650238,0.4716774,-0.048876166,-0.15103689,1.0220917,0.21778926,-1.2865362,0.25871775,0.08139666,-0.5913013,-1.1657453,0.9778494,-0.40247527
data_president_small/5_LNY/google_0081.jpg,1.2269773,-0.008396462,-1.3912075,-1.6961786,1.0007868,-0.09147827,0.6883487,0.76866627,-0.6279086,0.6403251,-0.27527034,1.1043843,-0.40608782,-1.4245602,0.19846871,1.4745705,-0.56006956,-0.8681035,0.79402,-1.1189276,0.045037538,1.2591586,-0.36939505,1.4085972,-0.42264363,1.3625166,0.21550785,-0.05385536,1.2361903,0.053220853,0.13869965,0.077447295,-0.12425584,-0.020674542,0.24704856,0.19895042,-1.6533599,-0.13563567,-0.6093813,0.012899093,-1.3573146,0.8462822,1.7113093,-0.7515732,-0.056338012,-0.385031,0.3987993,0.12353526,0.014180794,0.10663606,0.089352325,1.1162794,0.8907466,-0.689644,-0.1052921,-0.36421838,-1.583019,1.1071472,0.24697973,-0.3851809,-1.8282106,-0.3328809,-0.28687927,1.3648596,0.95569855,0.37675452,0.32972836,0.84050024,0.7204254,-0.2129724,1.7134031,-1.2562616,0.4367059,0.008574747,0.5400693,-0.21000737,-0.61342967,1.5657012,-0.19133362,-1.3954026,-0.36740425,0.6295774,-1.1240593,-1.1012597,-0.5345314,-0.07868534,-0.7579736,-0.41417754,0.3965826,0.28775024,1.1612641,0.95735717,0.4932826,-0.30197796,0.88838536,1.0698254,-1.4938589,-0.7410057,-0.07297283,0.9237026,-0.48085445,-0.5200093,1.2235326,-0.2786234,-1.6637684,-0.9290672,0.5359634,0.570886,-0.7542107,-0.38659754,-0.17529665,1.2940352,0.7908628,1.1376402,1.9367974,0.3319185,0.06412395,1.108011,1.1517007,0.25069338,0.13898595,-0.7033886,0.5090056,0.6801236,0.62244624,-1.0151024,1.1868091,-1.1631517
data_president_small/5_LNY/naver_0090.jpg,0.7190949,-0.18455642,-0.695706,0.28858542,-0.16820094,-0.8756206,-0.2615699,-0.07194455,0.8961572,-0.40692547,-0.8680702,0.33839172,0.66642284,-1.2090161,0.8893163,-0.42536515,0.5666979,-1.221417,-0.4287962,0.18319675,-2.0867655,0.5445045,-0.5570527,1.6407733,-0.47130927,-0.0837409,0.60477054,0.19612189,-0.20807962,-0.5004573,0.82404566,-1.4292724,0.119293,-0.9754827,-0.24501182,0.64872,-1.6710739,0.18901129,1.2417841,0.23464823,-0.9421432,0.7673245,-0.8976201,-0.988374,0.5964981,-0.29813194,-0.4944986,0.5829568,-0.079130165,0.4503929,0.021630663,0.011415631,0.47166798,-0.7205072,0.019318573,0.6665008,0.549494,-0.62363565,-0.041525953,-0.38911113,-0.49850175,-0.5988614,-0.27122465,0.6919036,1.0940999,0.42749935,0.089590475,-0.026848566,-1.0637382,0.4649494,-0.34178385,0.08700721,0.33514515,-1.6017486,0.11376451,-0.609563,-1.6384659,0.22940302,-0.7284956,-0.86776954,-0.27664626,-0.6292913,-0.10511993,0.5783145,0.934308,-1.4116219,0.3184764,-0.68803525,-1.6549988,-0.4965801,1.6568565,0.021061016,-0.84541684,-0.2501772,-0.44115734,-0.42725077,-0.45201248,0.71849686,-0.7511998,-0.23307711,0.2834472,1.1082433,0.7296161,0.06265305,0.21971637,0.48520815,-0.68603647,-0.279067,-0.76402587,-0.960748,0.37042218,0.826422,-0.010181665,0.35595784,0.119037956,1.0701379,-0.79166603,0.66776925,0.68404984,0.99399185,0.8576329,-1.0577663,0.21437013,-0.604295,0.6955372,-2.4612436,-0.36735144,-0.48825935
data_president_small/5_LNY/google_0007.jpg,1.2503757,0.3210161,-0.14923911,-1.809706,1.4581687,-1.090569,-0.30975586,0.45166776,0.207385,-1.987893,-1.9349087,1.940226,-0.20286237,-0.6203399,-0.45715442,1.0008744,-0.51232207,0.26290828,0.8218191,-0.56359565,-1.152782,2.5494933,0.006774325,0.05523907,-1.284419,1.6018637,-0.6313797,0.3765715,1.4179606,-0.5203968,0.03152219,-0.26833454,-0.105051324,-0.16917229,-2.1327035,-0.21214989,0.45921385,-0.005541347,-1.1626496,-0.33016485,-1.0117999,-0.2363453,0.26250362,-0.7025452,-0.35162503,0.22870955,-0.1280588,-0.9360572,-1.0219634,1.061073,0.101644754,0.7716395,-0.13442197,-0.38949805,0.39978138,-0.4163899,-0.7786201,1.4216998,-0.7939174,0.46945074,-1.126003,-2.0220919,0.042849585,2.0109382,-0.48950943,0.7520444,1.1971061,-0.6862249,-0.13653044,-0.8316742,1.2285522,-0.46259785,0.4005638,0.1348129,1.6861674,-0.12528811,-2.0125194,1.0492477,0.43478805,-1.7434022,-1.4990996,1.6878276,0.070113935,-0.7170041,-2.3051267,0.5220432,-0.81303465,-0.27576953,1.2770671,-0.24669695,0.15188396,-1.3813665,-0.0109799765,-2.3977206,1.6881922,-0.6589601,-1.9000075,-0.8133936,1.1301508,-0.68199044,0.63605595,0.73665285,0.1809423,0.2379026,-0.46328112,-0.47336745,0.16481905,-0.069969386,-0.39243302,-0.9990316,-1.0897034,1.875538,0.77937007,1.3336291,1.7808602,-0.13974437,-0.5556524,0.19988102,-0.2964063,-0.5451318,-0.63207495,0.033075254,0.4627484,-0.4164499,-0.24264382,-0.24756622,0.40902317,-0.4299026
data_president_small/5_LNY/naver_0050.jpg,1.1988312,-0.73552895,-1.0460846,-0.932397,0.45829764,-1.0793378,-0.68575865,-0.039848182,0.010847613,-0.5192218,-0.27089658,-0.23605649,-0.6955363,-1.1984829,0.003117457,-0.12059889,-0.46512702,-0.76104873,0.33266997,-1.0888097,-1.2503083,1.0186801,-0.20437944,1.2613952,-0.08727309,0.66396374,0.32185575,-0.09308641,0.2236974,-0.4808643,0.56250286,-0.031649206,-0.06471876,-0.34569106,-0.7396754,1.3496025,0.04198663,0.53482544,0.25311217,-0.007926874,-0.2136666,0.5537544,0.0026228204,-0.9235281,-0.36140832,0.09327863,0.47771874,0.1963156,-0.720582,0.70404434,-0.46720624,0.6178548,0.6965358,-0.49109,0.23184273,0.97778594,-0.35711256,0.9473211,-0.17593296,-0.47760302,-0.6092992,-1.7058691,-0.62317437,1.2284136,0.5369611,1.0734849,0.5090194,-0.14027992,-0.5705128,-0.25364196,0.9134788,-0.86305356,0.0060593337,-0.88980126,0.27483392,-0.3159137,-1.7837778,1.086652,-1.0522127,-1.0134302,-0.7433356,-0.030524284,0.5952601,0.8144128,-0.1433582,-0.23731348,-0.3781747,0.2169611,0.5607165,-0.45885804,0.85593253,-0.95697325,-0.22349614,-0.3340924,0.9795317,0.32318324,-1.420186,-0.85938084,-0.049247827,-0.012513713,-0.2036348,0.56664824,0.84735674,-0.8746975,-0.40471908,-0.3389606,0.52826315,0.89444625,0.23628917,-1.1951404,-0.24482527,0.6078895,0.61739063,1.0743122,0.77714026,0.41167742,-0.20266245,0.29478574,0.026593171,0.3512686,0.047873035,-0.8836684,0.2737472,-0.52133054,0.34374118,-1.1492931,0.46926013,-0.6733003
data_president_small/5_LNY/naver_0022.jpg,1.6890581,-0.923224,-0.25717562,-0.86433643,0.8378071,-1.2805525,-0.38032183,-0.17739324,0.9992779,-1.1167765,-0.37996227,0.11964199,-0.80184054,-1.7388616,-1.0068665,-0.10496585,-0.45573553,0.16863908,0.61847055,-0.29449192,-0.61783254,1.2405455,-0.40852502,-0.1011449,-0.18802719,0.8969956,-0.142511,-0.26463687,-0.2739455,-0.28982058,0.4398576,-0.19294427,-0.44737607,-0.93799263,-1.0551388,1.6849314,-0.5218885,0.096739076,0.14434825,0.13026774,-0.59902596,1.5564886,-0.3116288,-0.9560992,-0.10625295,0.68356663,-0.42631543,0.8996494,-0.9869809,0.7908809,0.043166894,0.37767106,0.37044784,-0.5738652,0.96056485,-0.5209307,-0.19749673,1.340056,-0.23508525,-0.77005464,0.031027049,-1.8590548,-0.22593942,1.6479381,1.0690289,1.5263386,0.5869669,0.18428682,-0.3712792,-0.18984266,0.4620201,-0.7000948,-0.84070843,-1.146295,0.3869557,-0.056466836,-2.221842,1.896547,-0.72798425,-0.80019313,-1.2375257,-0.32087713,0.5813419,0.37514278,-0.78407896,-0.6877048,-0.86695033,-0.25361344,-0.27773327,-0.6621236,1.6957397,-0.17794552,-0.38130987,0.01692857,0.19980073,-0.047850557,-1.5070983,-0.9279571,-0.10814521,-0.17687993,0.18864147,1.111529,0.7031851,-1.6070178,-1.1339381,0.10468574,-0.30408043,0.5847969,-0.6742076,-1.372097,-0.25985456,0.7232816,0.8226458,0.81113017,1.4695057,1.9264573,-0.72887313,0.19658086,0.1076718,0.64489824,-0.61520815,-0.5653243,0.2440114,-1.2161936,0.92013735,-2.4776554,-0.21071327,-1.1649462
data_president_small/5_LNY/google_0011.jpg,2.0639405,-1.0459774,0.2734044,-1.896245,2.5620804,-0.3841867,0.52088064,0.12812412,0.30599532,-0.04722687,-1.0135328,1.2432818,0.3674308,-0.879578,-0.5692457,0.118014425,0.8598608,-0.24714877,2.0106218,-1.7191846,-0.4291144,1.1467699,1.1161681,0.91608477,-0.8030139,0.37093872,0.14106162,-0.2040126,0.35538965,-0.30672908,0.11464691,-0.15872751,-0.87550473,0.25557292,-1.280906,-0.41860345,-0.08882594,0.94820076,-1.252166,-0.82211447,-0.94587576,-0.034153134,1.2118596,-0.32162082,-0.97297275,0.23435056,-0.26431203,-1.4688236,1.0430076,0.44707146,-0.5407451,-0.18631493,-0.42859134,-1.5031018,-0.16715953,-0.122017846,-1.5501624,0.4138265,-0.23165458,-0.2817521,-2.0233994,-0.71307826,0.69095856,2.0386336,-0.57659316,0.9457449,0.3587366,0.53155947,0.6461819,1.5241799,1.061902,0.25870368,0.23495269,-0.2736549,0.84816974,-0.31206843,-1.5609249,0.5095043,-1.5460243,-1.5147117,-1.5466805,1.0859824,-0.38343656,-0.6146869,-1.3310523,0.16732407,-0.19830137,-1.8272362,-0.43732738,-0.018498592,1.692965,-0.5347681,-0.6614108,-1.3045459,1.7214575,-0.6154511,-1.178008,0.1079128,0.9367674,-0.11671798,-0.08227942,0.5059859,1.5492212,-0.7923558,-0.700422,0.85980535,0.014236908,-0.6899463,-1.427817,-2.1531997,-0.5877501,1.7032602,-0.21039018,1.5344656,2.1129982,0.5282651,-0.16889243,0.30022612,-0.49458668,0.2265252,-0.1986597,-0.25634104,0.82497716,0.3023329,-0.46947867,-1.8505672,0.22763166,-0.6376727
data_president_small/5_LNY/google_0131.jpg,1.5498128,-0.037292372,-0.14615744,-1.3101778,0.3038809,-0.53599286,0.59515214,0.23343436,-0.6988798,-0.5621021,-1.5588046,1.7393314,-0.10403915,-0.17859228,-0.607021,0.76772505,-0.48020306,-0.0835028,1.4589951,-0.76658607,-0.28912172,1.6628208,-0.5515683,0.624387,-0.93061006,1.0588479,-0.4770815,-0.35537088,0.680278,-0.42556047,0.7123984,0.4654229,-0.60331595,0.030238152,-1.7207012,-0.5574054,-0.7642912,-0.45964152,-1.334357,-0.4415064,-1.5811297,0.76622254,1.5781993,-0.37875324,-0.3154051,0.93607104,0.50989956,-0.22966003,-0.051598385,1.228788,-0.15962379,0.11414103,0.24892578,-0.6517593,0.9112071,-1.4091475,-2.1273496,2.0790198,-0.20884003,-0.10648461,-2.1954067,-0.7480388,0.3003548,1.7310386,0.39788362,0.5245653,0.22336483,0.53724235,0.3941887,0.5977529,1.6721287,-0.7092743,0.4276394,0.0016966164,-0.05704392,-0.29097247,-1.7201318,1.0959871,0.17040125,-0.9617111,-0.4610244,0.0522374,-0.23373032,-0.9566547,-1.2678921,0.5363716,-1.4616745,-0.35376662,0.24569076,-0.9147894,2.2811213,-0.23606873,-0.12664941,-1.2593101,1.4206041,0.6014959,-1.3930616,0.243461,1.242307,-0.20268087,-0.3209688,0.6234558,1.5727949,-0.49517313,-2.2038913,-1.2405974,0.3541213,0.92149293,-1.4880453,-1.5120634,-1.3453736,1.1584995,0.74904466,1.2326996,1.4563868,0.21545562,0.5247377,0.72051615,0.09050813,-0.024729006,-0.62328845,-0.427816,0.91619307,-0.13055193,0.28913063,-1.514369,0.40558153,-0.6554358
data_president_small/5_LNY/google_0012.jpg,1.1596675,-0.16120525,-0.030154066,-1.7868878,1.4205706,-0.9923604,0.8048659,0.43393302,-0.4783196,-1.2479075,-0.692137,1.2182484,-0.8778901,-0.22039904,-1.1961422,0.98810655,-0.76068294,0.19425698,1.1466267,-0.5157453,0.1037415,1.6609788,0.34893486,-0.090403594,-0.39816207,1.4333845,-0.8232757,-1.2670039,0.61243796,-0.50018257,0.37610272,0.50326836,-0.57810175,0.37111545,-1.4844297,0.13598962,0.35054022,-0.104079254,-1.6594117,-0.58840656,-1.4296995,0.9138503,1.4639817,-0.0902535,-0.66012204,1.095633,-0.71070564,-0.16638201,0.008836262,1.4280262,-0.05017577,0.55765635,0.5889631,-1.0766196,0.39456302,-1.2973169,-2.3419328,1.7354959,0.13598087,0.17272767,-1.4375232,-0.35779285,-0.5075698,2.216597,-0.056196578,0.9740265,0.46877375,0.20205438,1.3327951,0.7889831,1.9485981,-0.9775834,-0.44572622,-0.08018819,0.64029473,-0.3762717,-1.3893079,1.3888804,-0.47942743,-1.374739,-0.72511894,0.8710866,-0.84702396,-0.87343705,-1.1936427,0.4978712,-1.633732,-0.81283665,-0.015291046,-0.49221852,1.4294531,-0.24513367,-0.11980295,-1.059999,0.9108715,0.8635049,-1.1467752,-0.22041601,0.97926193,0.022754809,-0.5138008,-0.49778014,1.2644154,-0.7208625,-2.0798864,-0.86280763,1.022386,0.52977514,-1.91577,-1.3026965,-0.9434711,1.2635034,1.4620552,1.2138922,2.1019661,0.6529455,0.39083984,0.11389432,-0.61064816,0.3067221,0.04749829,-1.2459992,0.41307044,-0.29758573,-0.34174126,-1.7617719,0.3805966,-0.3335833
data_president_small/5_LNY/naver_0089.jpg,2.4144104,-0.14909907,0.068321094,-1.4213009,0.9632291,-0.99271256,0.17107147,-1.3506789,-0.5806346,0.14550214,-1.5922453,1.677924,-0.08068292,-0.9355093,-0.31405902,0.9870421,0.17898828,-0.1498448,1.2071661,-1.6895941,0.37366825,1.1129551,-0.14587691,0.2950183,0.6914368,0.8673423,0.37112647,1.0436044,1.4474823,0.10975171,0.363062,0.9850577,-0.32549205,-0.05297991,-1.6003565,0.6264428,-1.4744065,0.72433287,-1.107532,0.0872391,-0.67627144,0.9049347,1.3046796,0.32768857,0.010176763,1.1429558,-0.7846459,-0.74487364,0.28415912,0.28864682,-0.7495921,-0.69372207,-0.013141677,-0.23349577,1.4936374,-0.31422395,-1.6844919,1.4641424,0.8372744,-0.7829756,-2.6656954,-1.1089762,-0.43634176,0.7172627,0.008411812,0.9076399,-0.17618254,-0.15012918,-0.0008019991,0.60919106,0.42174676,0.3965467,0.26265705,-0.059195697,-0.5845201,-0.47418967,-1.8061684,0.6202162,0.054130293,-0.60910016,-0.055704594,0.64560246,0.58320934,-0.46659324,-1.0163034,0.23162359,-0.7557185,-0.20299059,0.093680784,-0.24209237,2.3405695,0.34614745,-0.09332612,-1.652009,1.3911945,-0.27813026,-1.4695331,-1.0100278,1.126131,-0.35863644,-0.84032094,0.27152753,0.5329344,-1.132806,-1.6451201,-0.65872455,0.5345904,0.99052584,-0.45903993,-1.2943552,-0.71531457,0.5483347,-0.097644284,1.5337715,2.295653,0.7588953,1.1113176,0.93447,0.9698044,-0.46612084,1.1111966,0.25228393,1.6240175,-0.74034387,0.5482406,-1.5257614,1.1724017,-0.9592712
data_president_small/5_LNY/google_0016.jpg,-0.22658035,-0.47273615,-0.11405475,-1.0128317,-0.16915987,-1.0333824,-0.17992528,0.2659921,-0.13254803,0.0045674723,0.579222,0.16892962,-0.30599993,-0.6509726,0.15972553,-0.116479725,0.244452,-0.33840054,0.39781415,-0.6142634,-0.8476069,-0.12265552,-0.82237226,0.8203025,0.54622716,0.34582213,0.98472977,0.35068107,-0.3625046,-0.749996,-0.3777685,0.29966006,-0.38458383,-0.16834804,0.53670406,0.33787367,0.21365699,-0.12225849,0.8583614,-0.25086424,-0.18678136,0.17385681,-0.29283935,0.34269828,-0.42416438,-0.64939517,0.13767423,-0.4118647,-0.2648691,0.18762912,-0.59470737,0.8166899,0.65891224,-0.52263016,0.14257227,0.69869566,0.4658985,0.131386,-0.026613008,-0.5696334,0.1988183,0.01863724,-0.47167253,0.49888498,0.71126443,1.2073934,0.075792946,0.17150877,-0.25547945,-0.0037001711,-0.013653598,-0.38413715,0.12613901,-0.6301039,-0.2507364,-0.17304203,-0.66179466,0.09197002,-0.2799948,-0.7541448,-0.18931013,-0.33861923,-0.40542245,0.64800775,1.1590989,-0.59281063,0.15835007,-0.0532666,-0.44292596,0.7110414,0.06527268,-0.27157742,-0.55179214,-0.2401059,0.17702708,0.31351674,0.038577966,-0.32178897,-0.08195329,-0.044874094,-0.114342935,0.6101267,0.7951522,-0.93427956,0.21949601,0.597366,0.013151828,0.45962015,-0.072695576,-0.7845089,0.5579675,0.23022561,1.0977015,-0.016172782,0.21964276,0.77526474,-0.11199509,0.88046646,0.9616711,0.7944204,0.13106471,-0.3082335,-0.03547868,0.31806114,0.8051448,-0.84467137,0.51638764,-0.5981626
data_president_small/5_LNY/naver_0041.jpg,1.7097945,-0.30303854,0.568886,-1.6085255,0.65526813,-0.037286382,0.46209234,-0.37199095,-0.789219,-0.20295176,-1.2854407,1.61499,-0.5003174,-0.19460261,-0.4364123,1.1866547,-0.34119296,-0.38120705,1.6944852,-1.1427052,-0.01279325,1.442207,0.06832732,-0.17467946,0.43881202,0.5229174,-0.3594561,0.44710186,1.1359074,-0.0038169548,0.413227,0.64547265,-0.39454684,-0.8085663,-1.7261361,-0.06271935,-0.08599377,0.77744335,-1.000274,-0.13098928,-1.3284831,0.77944916,1.4211103,0.19653183,-0.5869838,1.8257657,-1.1811244,-1.2871493,0.2666158,0.9780923,-0.054969363,-0.25434723,0.36664343,-1.0105284,0.6600951,-0.79197395,-2.6651003,1.6225511,0.50154424,-0.30345345,-1.9138547,-0.42582613,-0.27597985,0.75650525,-0.4646206,0.95192736,0.29064277,0.5074697,0.7742463,0.80020034,0.76385427,-0.014123246,0.11309253,-0.57728624,-0.15766306,0.5752139,-1.5531254,1.2937771,-0.4592194,0.2176568,-0.4368008,1.0137641,-0.26157218,-0.30107358,-1.4635146,-0.23340334,-0.80580187,-0.45270962,-0.5473919,-0.3912724,2.7438216,-0.69871604,-0.21287514,-1.3551047,0.6432617,0.2843376,-1.193509,-0.16797814,1.3511956,-0.15419643,-0.9973667,-0.24112275,1.3482561,-1.0604068,-2.2446454,-1.2210778,0.57521546,0.8077328,-0.789497,-0.8337116,-0.62492496,0.30860725,0.6985079,0.8776379,2.341012,0.6544372,1.1295446,1.1100286,-0.24161878,-0.31072137,0.8097315,-0.5349401,1.2276601,0.27083224,0.39748865,-1.9797882,0.0065366775,-0.26252532
data_president_small/5_LNY/naver_0084.jpg,2.111631,-0.7575449,-0.6804204,-2.0420666,2.35434,-0.8604469,-0.15873955,0.86180127,0.7287259,-0.59238136,-0.34018147,0.9070708,0.0027850345,-1.1996455,-0.8802564,0.14154148,0.3733707,-0.43306857,1.5262177,-1.7001995,-0.623672,1.8053823,0.61983865,1.8610948,-0.4484242,0.7597486,0.033412065,-0.06458856,0.49223322,-0.45169675,0.056200135,0.2438328,-0.4997425,0.4759491,-1.6091465,0.9631236,-0.4558873,0.8956324,-1.5499613,-0.5924052,-0.53873813,-0.17082603,1.0188134,-0.113040775,-0.73134446,0.5656344,0.8328242,-1.409673,-0.1345398,1.0974208,-0.9351072,0.19765633,0.020753022,-1.5063615,0.04283668,0.61380273,-2.0397909,0.36200154,0.20408072,0.093182825,-1.8815464,-1.082846,-0.07322459,1.0757259,0.0991824,0.4365281,-0.2927471,0.030563496,0.13152921,0.0036311317,1.2628855,-0.3121499,0.1119737,-0.16089493,0.49117115,-0.5164208,-1.8314342,0.3656448,-0.8608405,-1.590461,-0.9017962,0.48807788,0.0047242157,-0.32528132,-0.62772256,0.34647614,-0.22473678,-0.43118072,1.5090941,-0.02730506,1.0132952,-0.19119425,-0.57778364,-1.2638,2.1921744,-0.16456498,-1.6888214,-0.89318764,0.48618704,0.065822534,0.5557302,0.20991448,1.2975453,-1.5444769,-1.1397613,0.08438908,1.1376638,0.15629068,-0.57545215,-2.296214,-0.12571843,1.2267599,0.23704593,1.9084618,2.0716553,-0.0952453,0.20354226,0.34007585,0.32475787,0.35170174,-0.33162594,0.09101757,0.1439611,0.2586231,-0.42487848,-1.0669291,0.8028603,-1.0369346
data_president_small/5_LNY/google_0147.jpg,1.8563299,-0.8779558,-0.46291167,-1.5135013,0.78857446,-0.6989027,0.40044546,0.72911966,-0.3896161,-0.8459198,-1.2218571,1.4461652,-0.35763854,-0.6845467,-0.7494024,0.89503,-0.38723114,-0.52119464,1.1166083,-1.2363257,-1.0335438,1.6562324,-0.07071438,0.38409856,-0.03121942,1.4431933,-0.3043877,0.13719197,1.3076714,-0.59234345,0.45546836,0.6370263,-0.33276865,-0.5012008,-2.055587,0.31237698,-0.34468937,0.52827185,-1.7317195,-0.38444552,-1.1075888,1.123097,1.0044131,-0.34488443,0.10535088,1.0714133,-0.0651253,-0.118615195,-0.59138083,1.2753282,-0.31745982,0.28262764,-0.082933955,-0.3375169,0.33199033,-0.2870342,-2.1829412,1.7171035,-0.22835398,0.2756129,-1.5032635,-0.8633288,-0.16353607,1.8619958,0.015940908,0.66759706,-0.16189843,0.58192724,0.49636304,-0.37026092,1.1510409,-0.40294713,-0.33165836,-0.1832836,1.1813962,-0.3656265,-2.257188,1.3558519,-0.026972517,-0.78181666,-0.9556153,0.49537465,-0.7030843,-1.4285553,-1.5530602,-0.25872168,-1.0711255,-0.33024046,0.8688208,-0.90157807,1.4133308,-0.74993944,0.2733098,-1.5009519,1.6722102,0.6070705,-1.7506101,-0.41416278,1.0251079,-0.066809334,0.30988324,0.68129075,1.1353605,-1.1993952,-1.6807321,-0.70075047,0.53278893,-0.024606697,-0.8501632,-1.5125794,-1.0151335,1.4343978,0.6944294,0.68651056,1.7026914,0.8998225,-0.16268054,0.65180653,-0.5190199,-0.08554928,-0.2197129,-0.37411773,1.1439959,0.17647472,0.28364706,-1.2111137,0.3051118,-0.29375243
data_president_small/5_LNY/google_0066.jpg,1.4418128,-0.9548098,-0.22798488,-0.85030425,0.64834285,-1.0546513,-0.65632355,0.045673292,0.85278296,-1.1012613,-0.009156637,0.044618152,-0.25350618,-1.1563414,-0.15939638,-0.35561794,-0.19565353,-0.34731555,0.5115262,-0.42265284,-0.93641055,0.7566971,-0.4948833,0.35085136,0.21551868,0.7838298,0.39105392,-0.040047474,0.027958948,-0.7706635,0.5945436,0.23942898,-0.21366034,-0.8931301,-1.166824,1.3884741,-0.87061095,0.45393062,-0.085331365,0.7174827,-0.1843104,1.0665989,0.12321102,-1.0664253,-0.19190942,0.4805876,-0.18640663,0.24712384,0.09999758,0.30304947,-0.17318904,0.42569333,0.63051414,-0.9061307,0.7758112,-0.4127428,0.012773833,1.1511713,0.010350961,-0.4597889,-0.018711701,-1.4718057,-0.46749565,1.608258,0.8804662,0.7097209,0.9025412,-0.17966054,-0.30818853,-0.17204234,0.11624246,-0.7626437,-0.5299635,-0.97638524,0.3166508,-0.25112182,-1.6950104,1.570788,-1.1607507,-0.70884734,-0.8034784,-0.19442411,0.54150224,-0.04621414,-0.5586604,-0.44561413,-0.9085124,-0.30710244,-0.44926998,-0.6619271,1.6075418,-0.35845745,-0.35490367,-0.4070103,0.5595259,0.24596119,-1.7777735,-0.26774687,0.018985271,-0.15255062,-0.07750261,0.6210345,0.95205885,-1.2902371,-0.6376709,0.2764299,-0.021360695,0.94119656,-0.5264517,-1.5113012,-0.4568138,0.8484109,0.2768132,0.61901486,1.1983439,1.4064293,-0.43331468,0.097901486,0.37097165,0.71226174,-0.26115918,-0.894153,0.11756302,-0.8726642,1.0189562,-2.1393278,-0.20902821,-0.5578175
data_president_small/5_LNY/naver_0043.jpg,1.6676286,-0.7643033,-0.84213895,-0.6238225,0.964204,-0.86434907,-0.8850892,-0.59247065,0.6056625,-0.26950583,-0.57646626,-0.2203485,-0.6379153,-1.987199,-0.30020395,0.20681018,0.0035913065,-0.8095464,0.5768215,-1.1203643,-1.0177504,2.1317987,-0.2840605,1.1513014,-0.30869144,0.25793332,0.54381466,0.1933085,0.5519545,0.15763089,0.60806227,-0.5416123,0.3173925,-0.8549317,-0.55578667,1.5204878,-0.18342727,0.45369577,0.7617926,-0.5025382,-0.47142905,0.36637595,-0.59402657,-1.2735344,0.067649536,0.8148829,-0.10386704,-0.2213739,-0.8410311,0.88496983,-0.3382361,-0.05983222,0.7107789,-0.5474946,-0.095472395,1.1287233,-0.30954275,0.09309834,-0.67196906,-1.0473957,-1.0463626,-1.7983499,-0.36033446,1.0763901,0.5259492,1.3335294,1.111492,-0.33314443,-0.896022,-0.12896386,1.1010321,-0.5552726,-0.33441266,-1.3620317,0.47282174,-0.31262037,-1.774434,1.3814616,-0.83244187,-0.5203964,-1.10107,-0.104096666,1.0731306,1.060451,0.10824722,-0.5480555,-0.08775907,0.2674362,0.20720324,-0.9164203,1.5078207,-0.18237928,-0.33897832,0.14168641,1.0830792,-0.71464306,-1.2112337,-0.8111437,-0.445906,-0.3235019,0.119727924,1.0523301,0.9817899,-0.974964,-0.53565556,0.42701846,0.1652302,0.4033792,-0.037374206,-1.1346632,-0.25124633,0.65129435,0.10839599,1.3022976,1.0766835,0.6567402,-0.27283114,0.8121232,-0.21707392,0.26863652,-0.016353294,-0.43767536,1.0311189,-0.54068756,1.0119662,-1.7798619,0.115154065,-0.54675573
data_president_small/5_LNY/google_0040.jpg,-0.05490963,-0.3133062,-0.2583127,-0.47282976,0.36866885,-0.1666002,0.108942345,-0.24808174,0.021183118,0.11276804,0.32837605,-0.36030576,-0.06618588,-0.5312768,0.002566658,0.50364256,0.23655209,-0.34628564,0.1804017,-0.6544951,-0.004736766,0.14156908,-0.20042673,-0.034850284,0.19540346,-0.16243926,0.6047512,0.464696,-0.323816,0.016162852,-0.33730045,0.33226863,0.10685,-0.13285378,0.5061041,-0.31383225,0.31374446,0.07829106,0.6304805,0.06286166,0.22373341,-0.046102524,-0.2732869,-0.21342055,-0.39658353,-0.48131153,0.0924433,-0.12368876,0.33285004,0.43007958,-0.48398817,0.33701465,0.3157761,-0.34481502,0.13238513,0.34949902,0.46400085,0.25637436,-0.2350238,-0.83198535,-0.36643124,-0.45246208,-0.21599567,0.72268575,0.09513687,0.54808813,0.28653,0.05737319,0.1380418,-0.5515413,-0.1456811,-0.46477026,0.26210225,-0.53544545,-0.19109395,-0.11085002,-0.07719534,0.4078659,-0.23878643,-0.48427266,-0.6914715,-0.15018757,0.29826283,0.318981,0.42611286,0.06554471,0.44576997,-0.1806984,-0.4800392,0.82376045,0.3505536,0.063972004,-0.03198248,-0.029902011,0.58998054,0.12621388,-0.108966544,-0.4749508,-0.84806556,0.015868956,-0.26048273,0.67823046,0.23175101,-0.46025392,0.053036638,0.123675,-0.053983636,0.19567105,-0.15945512,-0.3724747,0.15816712,0.23691504,0.43907928,0.48224434,-0.0086094905,0.1838246,0.20869136,0.5065204,0.31585315,0.08710012,-0.17148344,0.035521585,0.35624176,0.12059486,0.32805824,-0.5286221,0.20168336,0.028089263
data_president_small/5_LNY/naver_0085.jpg,2.265308,-0.9190335,0.7398674,-2.307994,1.3355625,-1.2649181,0.8087806,-0.15115812,0.99620885,-1.377936,0.09541292,0.51602226,-0.75279963,-1.9649296,-1.5189536,0.40219134,-0.6814531,0.13220555,0.64227146,-0.6572068,0.5482842,1.1317227,-0.036521196,0.17141634,-0.62600076,1.2536601,-0.34261253,-0.9903513,0.5885533,-0.42651877,-0.03332866,0.25855502,-0.6360559,0.058928974,-0.96650636,1.0862256,-0.13257858,-0.035411343,-0.3776595,-0.16513853,-0.81409615,1.0074039,0.08489852,-0.92284864,-0.85645425,0.5399263,-0.2548985,0.2729746,-1.0275013,0.23382424,0.08737585,0.35516745,-0.4774939,-0.972989,1.1208247,-0.5450878,-0.99810314,1.7661875,-0.3432939,-0.05954984,-0.42107204,-2.0403292,-0.10416057,1.3452157,0.32646653,2.3570998,0.56718034,0.5802302,0.43910328,0.2505726,1.1981007,-0.91079795,-0.600139,-0.73874784,1.0963314,-0.07974365,-2.4130168,1.5722857,-0.9125632,-1.2827078,-1.5364087,0.07472818,0.13080111,-0.59061044,-1.2944022,0.05183375,-1.0835141,-1.0171919,1.0037954,-0.35177964,0.9682049,-0.18483438,0.071985796,-0.6970113,0.9842598,0.6202744,-1.8736161,-1.242579,0.39790928,-0.18194939,0.23047091,0.4548313,0.5118201,-1.2773836,-1.2874641,0.31710726,0.38651273,0.1424216,-0.9992044,-1.105311,-0.18908976,1.0161076,1.197163,0.036039047,1.9389427,1.8661023,-0.81278026,0.060441934,-0.3290619,-0.0710825,-0.8556805,-0.1974213,0.593078,-1.1642177,0.08591655,-1.2620194,-0.30469704,-1.406021
data_president_small/5_LNY/naver_0040.jpg,1.7432971,-0.9779211,0.38911164,-1.2494502,1.0607628,-0.29314223,0.048766192,0.18266556,0.54530185,-1.4176644,-0.28407302,0.025231993,-0.06646675,-0.80502033,-0.406054,-0.2352774,-0.69941306,-0.4860831,0.41103688,-0.32126722,-0.34505886,1.2441562,-0.09846502,0.5034218,-0.35739446,1.0813206,-0.026748043,-0.41454738,0.3749627,-0.686262,0.6739042,0.22902341,-0.36053216,-0.7046306,-0.9304912,0.7643805,-0.8639319,0.29756156,-0.46070302,0.38618964,-0.3102431,0.110522665,0.81394935,-1.4995177,-0.29947653,0.31889957,0.22712904,0.09434431,-0.47390908,0.30019876,-0.08602592,0.37833285,0.5051552,-1.1475332,0.6078939,-0.59581864,-0.42184716,1.1035473,-0.18833044,-0.16483563,-0.59666365,-1.2931845,-0.17160234,1.5669825,-0.21434405,0.70973164,1.0517827,-0.120575435,-0.08471049,0.48637614,0.9836541,-1.3238844,-0.12667038,-0.7576452,0.40876833,-0.1828119,-1.7210816,1.4132601,-1.1350676,-0.76727647,-0.43738592,-0.046991616,0.49631813,-0.3778602,-0.43616834,0.03784149,-0.50714093,-0.4208699,0.6695075,-1.0518737,1.323838,-0.6601834,-0.15190963,-0.94412094,1.1010201,0.67705536,-1.6703908,-0.3415874,0.2868186,-0.18686268,-0.18939087,0.042699553,1.0483124,-0.7096488,-0.87478095,-0.1281583,0.8551025,0.6760422,-0.1764466,-0.9211566,-0.8162888,0.9578027,0.52587914,0.50644565,1.1096771,0.45902798,-0.43408898,0.51554394,-0.075039424,-0.584224,-0.17986357,-0.47546417,0.555164,-0.4707076,0.9367702,-1.4446539,-0.39751995,-0.24996741
data_president_small/5_LNY/naver_0045.jpg,0.024790026,-0.42995527,-0.30218896,-0.72623515,0.32500964,0.08588728,-0.2279627,0.21492282,0.27291623,-0.09872331,0.24039638,-0.18264402,-0.003799364,-0.5310153,0.18774194,-0.18304256,0.02663159,-0.61904275,0.2606631,-0.70423746,-0.41401988,0.009270237,-0.31597152,0.68733907,0.39642477,0.09063993,0.9103576,0.23152517,-0.44999188,-0.41604733,-0.21441847,0.35415503,0.0010755649,0.062013395,0.23395558,0.045222808,0.23325941,-0.20575792,0.84326625,-0.15568997,0.039085336,0.042449154,0.052997895,-0.35322514,-0.32643935,-0.18540144,0.15391697,-0.39752677,0.10088849,0.043925267,-0.27241355,0.62513494,0.55133337,-0.63175946,0.09234752,0.6126712,0.068132,-0.36704,0.06535009,-0.41693285,0.13584688,-0.0999266,-0.2509845,0.6191849,0.40721267,0.530551,0.045785435,0.024539959,-0.28285035,-0.32101196,0.26785368,-0.5368756,0.14783034,-0.7899588,0.39391807,-0.08764179,-0.28921795,0.5686551,-0.3722409,-0.36337268,-0.42654297,0.06374292,-0.061600238,0.50032836,0.5437543,-0.041041452,0.39725614,-0.29491633,-0.4182403,0.2574628,0.1853894,-0.01655726,-0.48875266,-0.15241152,0.8363707,0.4950305,-0.34732404,-0.4691388,-0.6905925,0.3011529,-0.06020183,0.17949736,0.42750484,-0.49897677,-0.27962404,0.29137826,-0.24439979,0.07052191,-0.22959945,-0.6425665,0.23938937,-0.048233792,0.3573842,0.12207952,0.21534508,0.58174825,-0.35239795,0.8395963,0.40644205,0.41206568,-0.09589964,-0.5326096,0.52802765,0.40344906,0.4166751,-0.69201785,0.58183336,-0.015162557
data_president_small/5_LNY/naver_0077.jpg,1.4028478,-1.0045022,-0.7092706,-0.29921576,0.2727997,-0.4945726,-0.49849662,0.110458925,0.58026814,-1.0088995,-0.529766,0.10162238,-0.07408963,-1.3402421,-0.12767412,-0.8776148,0.03997635,-0.5631987,0.1833266,-0.1418677,-0.90819335,0.91058433,-0.4396133,0.8606846,0.05537204,0.5374627,0.60920525,-0.2540221,0.16996005,-0.6905891,0.8383107,0.23573333,-0.34480637,-0.75085634,-0.9406176,0.5246688,-0.68570685,0.7360774,0.23555405,0.4844381,-0.55023205,0.49681145,-0.054762065,-1.647424,0.25577623,0.21258871,0.067386165,0.4739128,0.11573838,0.08165275,-0.15137424,0.6560642,0.7842752,-0.8836709,0.29774684,0.97554266,-0.053228814,0.31942442,0.094003476,-0.058098286,-0.20285183,-0.99901646,-0.52193123,1.4483393,0.79768014,0.569098,1.2363702,-0.28568143,-1.1396568,-0.05579652,0.57191277,-0.63367057,0.04864683,-0.8175912,0.7611912,-0.87091273,-1.6296086,1.0860318,-1.8013965,-0.8509602,-0.6293551,-0.1777471,0.22702414,0.39106536,-0.23508558,-0.28395438,-0.43294558,-0.8557169,-0.29789552,-1.1043228,0.92671293,-0.6967343,-0.7373505,-0.754072,0.93507135,0.06316759,-0.917607,-0.25532067,0.567887,-0.08338062,0.06146147,0.34244078,1.101836,-0.4733411,-0.2147308,0.35770786,0.295161,0.4951216,0.14218652,-1.5797535,-0.3084963,0.5398334,0.105359815,0.5286011,0.7891684,0.88772583,-0.93789077,1.0703062,-0.21849525,0.57445717,0.32476455,-0.99706817,0.17594978,-0.39774328,0.23655847,-1.1113839,-0.47463852,-0.53173125
data_president_small/5_LNY/naver_0062.jpg,-0.39139757,-0.53204477,-0.53709435,-0.6376983,0.91902745,0.12930685,0.21139728,0.19915602,0.62303925,-0.0036189388,0.20242044,-0.1240084,0.11480299,-0.76553273,0.3819602,-0.050063595,-0.021743491,-0.55943364,0.6966051,-0.95768034,-0.49528584,0.23922388,-0.06510392,0.70100045,0.37841704,0.054750603,1.0840026,-0.100339025,-0.6801203,-0.29927224,-0.54940903,0.035357926,-0.076586455,0.2502955,0.69910383,0.017234959,0.12465521,-0.27310586,0.4320033,-0.603907,0.02656255,0.2893211,-0.24306828,0.11894879,-0.20195875,-0.43624887,-0.08898391,-0.5839685,0.37024677,0.52798647,-0.9160714,0.37046453,0.38141596,-0.56610984,-0.23956192,0.110108785,0.61121523,-0.4150138,-0.6434503,-0.7042991,-0.09619157,0.28997868,-0.17940521,0.6013837,0.09950445,0.69054353,-0.02759602,0.087201744,0.058944352,-0.25594494,0.53298545,-0.5325523,-0.3185995,-0.72624177,0.38505712,-0.37961212,-0.37907112,0.42981267,-0.26665735,-0.12828997,-0.48732138,0.16737786,-0.1875062,-0.018494304,0.69825464,0.09765445,0.66650534,0.23931812,-0.5822084,0.49173343,0.29083884,0.17971918,-0.4343367,0.17320281,0.7133961,0.5854477,-0.676691,-0.214294,-1.0743077,0.5257251,0.07241425,0.035813592,0.46030638,-0.67571366,0.14299259,0.27193004,-0.24671413,-0.32371563,-0.27964157,-0.8017461,0.09098731,-0.22656606,0.330196,0.59269017,-0.10333886,0.41193983,-0.33222806,0.523324,0.8043578,0.7825213,-0.17863052,-0.2739154,0.35813063,0.2850674,0.7415259,-0.853966,0.7554934,0.055964883
data_president_small/5_LNY/naver_0064.jpg,1.9411416,-0.3785163,0.052338414,-2.0655618,1.7467467,-0.4687749,1.1743219,0.8076873,-0.3602835,-0.5145968,-0.5451107,1.1149993,0.4067539,-1.025435,-0.6740085,0.80030733,-0.56414306,-0.8145294,0.87024164,-1.0429189,-0.8894646,1.9906073,0.1752905,0.82945335,-0.39903325,1.3113302,-0.055189855,0.21104759,0.5801697,-0.22466207,0.2617613,0.30324617,-0.8960322,0.20817378,-1.4872813,-0.6251419,-0.118582904,0.37315115,-0.76421285,0.30722973,-1.5721515,0.36411956,1.4912547,-0.41651264,-0.09254999,0.2945907,-0.23497835,-0.97805154,0.71998334,0.24811158,-0.5932232,0.353667,-0.08423815,-1.4417201,-0.71753657,-0.74065816,-1.2265433,1.3536879,-0.42650995,0.1646207,-1.7533077,-0.72897005,-0.19464344,1.5873898,-0.6563898,0.4124273,0.38571152,0.03912738,0.7616224,-0.29413185,1.4466717,-0.42455733,0.056897957,0.06657,1.3843315,-0.22284478,-1.6468285,1.6901495,-0.42174476,-0.6626171,-0.6730525,0.93891764,-1.0342128,-1.4473245,-1.6578442,0.37778524,-0.8908067,-0.9363903,0.18895991,0.12577717,1.246398,-0.6233741,-0.34573346,-1.4722621,1.8633351,0.59593976,-2.2068124,-0.47436118,0.81841266,-0.28508368,0.2497695,-0.5038734,1.0738233,-1.1532598,-1.7447811,-0.033447262,0.31283927,-0.81039155,-1.4247081,-1.4648908,-0.27240026,1.3829201,0.5236759,0.94388247,2.6309836,1.0718756,-0.39895236,0.13631588,-0.37211427,0.76561975,-0.21807681,-0.8103212,0.22241439,0.36697966,-0.6177854,-1.118699,0.32906014,-0.89035213
data_president_small/5_LNY/google_0080.jpg,1.7758315,-0.25140882,-0.69613016,-1.3051466,1.3572485,-0.720322,0.016176168,-0.11348462,0.044757247,0.18507695,-0.4524847,1.15762,-0.27235693,-1.4421962,0.086121775,0.07810561,-0.458721,0.04272934,0.9895964,-1.5738727,-1.1135032,1.8935093,0.47140688,1.5656217,-0.16129352,0.5670036,-0.09484699,0.34409,0.6711617,-0.42115426,0.3194499,0.05042841,-0.86966354,0.26744998,-1.051985,0.19263083,-0.57250935,0.34616402,-1.5995841,-0.29349297,-0.96471393,0.53909254,1.6826075,-0.41471988,-0.3820408,0.51724863,0.16228741,-1.4299423,1.2264026,0.45642468,-0.40121472,-0.9513617,0.6669839,-1.2374846,-0.24877933,-0.3845583,-1.7649477,0.9859638,-0.70229393,-0.5690927,-1.7717979,-0.41268426,-0.48236105,1.7292899,0.55290747,1.1000627,0.48527238,0.99869305,0.9777751,0.4782344,1.4483811,0.19538936,0.15533412,-0.16434307,0.29372555,-0.36856332,-1.2305324,1.1445957,-0.8993976,-0.50111204,-0.8924703,0.72691107,-0.3561048,-0.6151623,-1.2570727,-0.16104992,-0.81037647,-0.34456593,-0.149266,-0.34831995,2.3619902,-0.42023572,-0.46139345,-0.35523817,1.7839161,-0.42468652,-1.8263475,0.75058746,1.1054287,-0.10805768,0.06977544,-0.24485987,1.532285,-0.8278178,-1.3171813,0.17380168,0.39980873,-0.30846372,-1.5417314,-2.1656554,-0.40722597,1.5286524,-0.21904704,1.7132134,2.1172686,1.0599086,0.17063788,0.16539109,0.5397735,1.7330748,-0.30676222,-0.6601814,0.65793294,0.10445054,0.061901595,-1.8505813,0.71651036,-0.32091534
data_president_small/5_LNY/google_0060.jpg,2.1707878,-0.4917697,0.24136375,-1.2934784,0.616036,-1.1937404,-0.0060379542,-0.8070558,-0.6374264,-0.8911568,-1.2311673,1.4197446,0.25138938,-0.30141926,0.3467399,0.41171753,-0.3874102,-0.96821964,1.2727333,-1.1697772,-0.09449095,0.55660033,-0.1461376,0.7224105,0.69269556,0.61821336,0.26362193,0.7633306,1.3389834,-0.1633731,0.46109298,0.83387154,-0.08292453,0.28932348,-1.8879939,0.71437687,-1.1270044,0.28788927,-0.98168105,-0.013249587,-0.49952096,1.0206609,1.3945813,-0.2503605,-0.9077145,1.2369803,-0.640629,-0.6001302,-0.438886,0.99878,-0.18177705,-0.052350085,0.52429867,-0.56165993,1.4565816,-0.037162386,-1.8944936,1.1967697,0.6631545,0.25251615,-2.0255911,-1.0961816,-0.42038304,0.47297713,-0.32073975,0.5796521,-0.32611394,-0.49620402,-0.4189718,1.1378996,1.3249241,-0.6346872,0.5033001,-0.3329366,-0.4155502,0.006923903,-1.4397422,0.6569565,-0.36091658,-0.69135714,0.19801626,0.8784586,0.7210674,-0.32810977,-0.105022706,-0.100480154,-0.45383623,-0.2312985,0.6559409,-0.6600353,1.7320249,-0.04839061,-0.19936052,-1.404103,1.2611893,0.50236124,-1.7002736,-0.61963314,0.4246553,-0.33483374,-0.5050388,-0.41130003,1.1522676,-0.8835758,-1.3574106,-1.057517,1.2520238,1.2788821,-0.41133308,-1.1919045,-0.6208689,0.3684262,0.15439597,0.7582433,2.0632987,-0.11083062,1.0885344,1.1065277,0.76931965,-0.93398345,1.4939704,-0.63768375,1.4562641,-0.42942858,0.76816124,-1.2181053,0.45955545,-0.050795585
data_president_small/5_LNY/naver_0076.jpg,1.9857677,-0.8818265,-0.33926815,-1.2539747,1.7316977,-0.8920467,0.065339595,0.80516326,0.03257455,-0.50732934,-1.1416739,0.61121935,-0.43166697,0.06633687,-1.1067338,0.35497618,-0.3188812,0.2281564,1.0383217,-1.2750994,-0.19547725,2.1955664,0.38966113,0.24656335,0.31371385,0.6344929,-0.46988243,-0.11178623,0.24031994,-0.62218964,0.21502712,0.36841375,-1.4577932,0.28658715,-1.3794152,0.019450903,0.46280122,-0.2610423,-1.820976,-1.1128714,-1.587747,0.7323305,2.0035825,-0.7374571,-0.5147091,0.41629195,0.55940247,-1.2886585,0.05774796,1.7903556,-1.0040601,-0.14917645,-0.13970768,-1.3676773,-0.004726231,-1.0305774,-1.6712029,1.4094495,0.26963538,-0.07677099,-1.5132787,-0.55006766,0.9891058,2.0782244,-0.42410347,1.0522276,-0.097265355,0.6887509,0.47855568,0.48396322,1.7622098,-0.6215019,-0.29720727,-0.1698499,0.6965791,-0.2641803,-1.2233586,1.0964748,-0.31139514,-0.9779819,-1.0179291,0.69407904,-0.056889825,0.02078961,-1.0920085,0.32917586,-0.90108,-0.9856262,0.62329686,-0.5173061,1.7645189,-0.6603194,-0.8871228,-0.94490963,1.1640111,0.4228285,-2.107658,-0.261668,1.5184019,0.13504858,-0.23280263,0.6941062,1.7741567,-1.9375046,-1.1767405,-0.5952393,0.15763961,0.6548042,-1.7130314,-1.7856818,0.00947666,0.8251957,0.8872758,1.9656284,2.37057,0.37060422,0.6290221,0.6060369,-0.99060094,0.65897757,-0.000695318,-0.53650784,0.21268684,0.26949507,-0.59656644,-1.7040174,0.16782337,-1.3031129
data_president_small/5_LNY/google_0121.jpg,0.6290742,-0.1951994,-0.9643936,-0.8944555,1.0111716,-0.35327902,0.45909643,0.45595977,-0.5622253,-0.18799098,-0.30352977,0.7346866,-0.30633152,-0.7061584,-0.100254685,-0.7348588,-0.87019444,-1.4479021,0.90909696,-0.73119545,-0.18489319,1.0669142,-0.2093463,0.68779355,-0.05214901,0.61485714,0.98283887,-0.5522539,1.6848755,-0.7507521,0.10755948,0.25874767,0.60021126,-0.54897064,-0.25857013,0.30431765,0.17802253,0.2917349,0.26959997,-1.2510072,-0.10875605,0.7850312,-0.002055779,-0.9419532,-1.3774576,-0.3335521,-1.143405,-0.7952815,-0.5468313,0.4220599,0.019925792,2.1794438,1.1049819,-1.2807844,0.1591628,1.5729331,-0.90507865,0.33006352,0.6436563,-1.1770895,-1.0644536,-1.0248271,-0.543227,0.69486094,-0.46497163,1.8253181,0.9722057,-0.015172719,-1.1136594,0.88715625,1.6137207,-1.3231367,0.6115968,-0.70766747,0.79167426,-0.08245836,-0.73768604,1.5187784,-1.9006064,-0.71717834,-0.48234677,2.1354184,-0.28101557,-0.061098553,0.15605804,0.5140146,-0.7196443,-0.11513344,0.20073146,-0.08779147,-0.03897717,-0.24323046,-0.41301847,-0.28995907,0.6936681,0.12809758,-0.7835265,-1.3443751,0.5913637,0.058423564,-1.8758168,-0.67434,1.4763299,0.1291966,-0.28956193,0.1443225,2.3804219,1.2736727,0.81762826,0.2499653,-0.19676515,0.59309936,0.77057385,1.1243374,1.35171,0.49131885,0.10479209,0.53520536,0.30487472,-0.7207485,1.0071666,-0.8283119,0.6413717,-0.07598022,0.6075186,-0.11128683,0.5605903,0.022502083
data_president_small/5_LNY/google_0029.jpg,1.1086266,-0.3336636,-0.19538236,-0.54209083,1.0531409,0.3176721,-0.50561005,0.017774276,-0.035484895,-0.05700736,-1.8754435,0.39571017,-0.46728063,-0.5877614,-1.4928552,-0.57287204,-0.2552851,-1.4030528,1.1869936,-1.2453569,-0.7073735,1.2642856,0.12846291,1.1212814,-1.3699055,0.5894336,0.39705065,-0.13668542,0.38940024,-0.49744502,0.7987288,-1.266818,0.14167748,-0.981322,-1.4253907,0.31006932,-0.50772804,0.003210798,0.30828354,-0.65270126,-1.2612264,-0.8109494,0.51128614,-0.45088518,-0.16428001,0.469626,0.093697906,-0.08826105,-1.0399064,0.15877129,-1.3266432,0.3023633,0.42074934,-0.34719825,-0.3223337,1.0247025,-0.09674862,0.23077437,-0.053140104,-0.31828263,-2.2829025,-1.3654951,0.5586683,1.0685765,-1.0649005,1.1297892,0.38100505,-0.6707377,-1.1268202,1.2359535,1.4144019,-0.3486818,0.42214978,-0.16969498,0.62174016,0.17719111,-1.277606,1.2774876,0.13394284,-0.37826002,-0.2661615,-0.19203049,0.72425383,-0.17769782,-0.0076425746,0.26343536,-0.641822,-0.31405807,0.7707139,-0.6415872,1.4157958,-1.1472313,-0.78429776,-0.85976547,1.0994917,-0.1435556,-1.9968356,-0.5857501,0.039309196,-0.9561287,-0.1991997,0.27715474,1.6885188,0.29235658,-0.3660637,-0.71216,0.5744561,0.19968727,-0.14876214,-1.0836632,0.10018127,0.45111316,-0.3903667,2.6537566,0.31848216,-0.25341535,-0.09101263,0.95133895,-0.46823904,-0.24697147,0.43111038,-0.64767504,0.17981239,0.16131605,0.015686303,-1.1214195,1.5629046,-0.6252695
data_president_small/5_LNY/naver_0042.jpg,1.1059343,-0.8880954,-1.2626247,-1.0944555,0.7358323,-0.7691967,-0.2132072,-0.15729538,0.43919986,-0.56582695,-0.3051661,-0.26552325,-0.699319,-1.4579246,0.39064398,-0.20456147,-0.34252143,-0.5513783,0.53158796,-1.4290671,-0.7024903,0.7056832,-0.22741216,0.74143565,0.35020933,0.31430689,0.28954953,-0.03063634,0.39344656,0.14428474,0.19907494,0.1925638,-0.38762078,-0.34555376,-0.041844256,0.3088628,0.0320739,0.6207679,0.37987894,-0.34596643,-0.4408313,0.95232546,0.116244175,-0.83491284,-0.41169646,0.15395483,-0.07900755,-0.19174805,-0.4363181,0.8837091,-0.7251433,0.37226355,0.78256106,-0.33377087,-0.16491123,0.71436024,-0.25554192,0.28323522,-0.6579286,-0.5035979,-0.45387262,-0.82806844,-0.48254496,1.2084239,0.20673025,1.4473594,0.49202782,0.1434499,-0.20428759,-0.38611445,1.1278883,-0.48174417,-0.26711136,-1.3867396,0.24623916,-0.24599218,-1.2057455,0.91371614,-1.1922762,-0.8170687,-0.9181376,0.24618675,0.05817963,0.41442847,0.018342879,-0.80946946,-0.12034768,-0.4172066,0.12551498,-0.26085842,1.0690657,-0.758238,-0.6715429,0.056108557,0.6026688,0.53258604,-1.2391726,-0.53301424,-0.4828969,-0.115722686,0.26864964,0.2953683,1.2856737,-0.90862226,-0.114310704,0.28376836,0.09082711,-0.060871527,0.035689868,-0.8449508,0.10390695,0.18573186,0.24571495,0.7744097,0.7280759,0.411836,-0.6572391,0.6700822,-0.11538113,0.5470455,0.24950333,-0.3266424,0.7865194,-0.07356097,0.31858808,-1.2078936,0.05291851,-0.7390047
data_president_small/5_LNY/naver_0097.jpg,1.5407176,-1.2277535,-0.57456005,-0.8185897,1.2632161,-1.0738335,-0.46011618,-0.067290545,1.2172756,-0.8595161,-0.35361877,0.09059915,-0.45816767,-1.7132454,-0.44728276,-0.8088917,-0.27565542,0.22905682,0.69188243,-0.57250285,-0.1267402,0.83238006,-0.628735,0.50953466,0.44949973,0.8316769,-0.12979588,-0.5800394,0.18637154,-0.53051424,0.7593347,-0.077669844,-0.6250065,-1.0684841,-0.82255834,1.4331394,-0.46443412,0.85118204,-0.34436783,0.21164069,-0.26782456,1.7543842,0.2928939,-1.124612,-0.401536,0.80333346,-0.6004916,0.6306603,-0.71096987,0.3261099,-0.542345,0.8540751,0.41836637,-0.7793726,0.8185542,0.18083385,0.13852927,0.6730324,0.16118155,-0.6228627,0.38271078,-1.1437417,-0.3865536,1.6076846,0.56580305,1.5260289,0.81848556,-0.20987524,-0.6962136,-0.1275888,0.9392621,-0.58666384,-0.7206715,-1.0832094,0.42503715,-0.6405285,-1.9469239,1.4910427,-1.8138256,-0.5895547,-1.0178596,-0.1383918,0.13062927,0.31121242,-0.8091825,-0.44348803,-0.843403,-0.46564645,0.037775643,-0.71682996,1.183317,-0.3809057,-0.46879053,0.1852065,0.47959155,0.09605058,-1.1881831,-0.73839355,0.28118432,-0.023275936,0.2760116,0.39705282,1.0046859,-1.6045907,-0.37885258,0.15742579,0.0086234175,0.37454814,0.23252031,-1.1643194,-0.18325934,0.16292119,0.67943263,0.93125784,1.0755277,1.296406,-1.0400227,0.40388072,0.021503866,0.79728913,-0.27100438,-0.45504528,-0.0642628,-1.1762855,0.47805572,-1.4456462,0.039354168,-1.3579165
data_president_small/5_LNY/naver_0052.jpg,2.159831,-0.19109663,-0.22034518,-1.7802718,0.75761056,-0.57344645,0.026741575,-0.32274324,-0.08398735,0.2788167,-1.621334,1.1261929,-0.8990765,-0.56793815,-0.37398356,0.5093861,-1.1625437,0.023801424,1.2293198,-1.7867135,-0.6946875,1.8576272,0.073955126,0.71517473,0.006294548,1.3344434,0.0744059,-0.09637202,0.61841553,-0.3169517,0.27445787,0.43205065,-0.9119073,0.44593352,-1.4526093,0.4762261,-0.8139908,0.008283436,-1.8499851,-0.19580337,-0.8836458,0.6890499,1.5523665,-0.19640784,0.024123328,0.3600199,0.14671436,-0.47021866,0.7282481,0.51655924,-0.3878984,-0.7848631,0.35531735,-0.9654487,0.38046762,-1.4605436,-1.69558,1.8196999,-0.24065694,-0.64759827,-1.7537981,-0.9826068,-0.71126264,1.818957,0.2025564,1.1437926,0.1932816,0.25601003,0.8232714,0.38020313,1.553055,-0.51082563,0.7256572,-0.0052405223,0.435776,-0.516841,-1.3819381,1.5236816,0.06584997,-0.5566875,-1.1204023,0.47300777,0.23249921,-0.5722109,-1.6523161,0.18841597,-0.935828,-0.36313534,1.0609318,-0.13745223,1.8470708,-0.2827993,-0.2445203,-0.7044499,1.9335713,0.2960495,-2.3500526,0.22457205,1.1853609,0.05751297,0.12647901,0.14962965,0.81403744,-1.0238999,-1.4515364,-0.58829427,0.13735525,1.0601152,-1.3241181,-1.8310105,-0.6006401,1.0311513,-0.17861944,2.0068283,2.0647194,1.3332549,0.534415,-0.044192225,0.06243153,0.5573613,0.038724974,-0.7667601,0.0018947311,-0.06550613,0.07622799,-1.7951187,1.0175254,-1.0076904
data_president_small/5_LNY/google_0006.jpg,1.2886884,-0.9210144,0.33486214,-0.87212914,0.67106724,0.45222676,-0.24469961,-0.22026357,0.47259846,-0.4436447,-0.20220426,0.2256038,0.03417983,-0.6234815,0.16779296,-0.57049644,-0.09846321,-0.9947624,0.9678231,-1.0791953,-0.73103046,0.6096345,0.47544754,1.3585572,0.25911245,0.5447373,0.59409666,0.26860642,1.3630536,-0.45012614,0.046698075,-0.055226017,-0.4954142,-0.38170508,-0.47539285,0.84957194,-1.4082566,1.6988809,0.55033493,-0.26176664,0.25211984,0.013335731,0.7531601,-1.2353041,-0.10778415,0.33551913,-0.4823638,-1.1268549,-0.16710213,0.18569584,-0.5279661,0.51043355,1.1697005,-0.88840497,-0.8449568,1.5172725,-0.46051097,-0.45304358,0.176981,-0.27388343,-0.90987754,-0.35568446,-0.24674073,0.63898057,-0.75413567,0.71612954,1.1621718,-0.74291843,-0.7922109,1.1787455,0.7708856,-0.4133671,0.65045094,-1.0197753,0.5244862,-0.5824977,-1.1970084,0.7154551,-1.8918464,-0.29569256,0.28030998,-0.03951905,0.12453482,-0.11518092,0.12738258,-0.09147488,0.7583177,-0.37755138,0.32712218,-0.91267836,1.2613566,-0.35461247,-0.43527818,-0.6903557,1.2055583,0.23939328,-1.2719575,-0.8197794,-0.18099222,-0.31539848,-0.59155875,-0.06677005,1.5707184,-0.36345267,0.4750505,0.76286227,0.88523495,0.06817766,0.44705418,-0.61840224,0.46865124,0.72464216,-0.76472795,1.3090999,0.8626636,-0.03851889,-0.6332017,1.1935844,-0.15016812,-0.786124,0.38760614,-0.48351833,1.4171643,0.3123553,0.8290438,-0.9532978,0.62335896,-0.0061059594
data_president_small/5_LNY/google_0056.jpg,1.9656386,-0.4798848,0.60273427,-1.4030385,1.0681576,-0.4681262,0.97247326,0.2233662,-0.22512022,-0.571186,-1.4954429,0.85305476,-1.2477312,-0.021906428,-1.0727335,0.57648885,-0.82843864,0.04706651,1.5521934,-1.3298466,-0.596824,1.6829615,0.29002273,1.0150065,-0.09223224,1.4257298,-0.75279677,-0.9474195,1.5208832,-0.23458037,0.67071724,-0.4504131,-0.8344956,0.63073534,-1.9907905,0.5351892,-1.0607038,0.29253477,-1.5441573,-0.7669821,-1.0741489,0.8103364,1.5573927,-0.10056745,-0.6492991,1.4390024,-0.11689402,-0.29875696,-0.96808726,0.9999422,-0.42714489,0.20799558,0.6880824,-0.59810543,-0.1692042,-0.5701529,-1.4719892,1.4091206,-0.1590859,0.46168277,-1.7655451,-0.6678047,-0.2784648,2.3669987,0.47847098,0.86672986,0.28505182,0.29876387,0.5474703,1.3617833,2.0301566,-0.49056947,0.18340245,-0.2265584,0.7659614,-0.09376708,-1.5461956,1.379209,-0.2808108,-0.37663007,-0.790398,0.23277362,-0.057314895,-1.5031071,-0.97110975,0.09165305,-0.94459605,-0.55901766,0.7939342,-0.5662921,2.0107114,0.1218125,-0.26008296,-0.8399695,1.4651482,0.04030264,-2.040312,-0.27462617,1.0074112,-0.3132349,0.0051020086,0.35151723,1.2670304,-0.46262306,-1.3660347,-0.5430104,0.15014313,0.21585572,-1.5111614,-2.0697722,-0.84074956,1.5703219,0.3693845,1.6909189,1.9059175,0.29000515,0.3281552,0.6725681,-0.024883643,0.19052468,0.27773008,-0.60153115,0.47220135,-0.15114431,0.047300518,-1.9310317,0.8653203,-0.39336008
data_president_small/5_LNY/naver_0107.jpg,1.5640434,0.0426471,0.23839061,-0.7586322,0.97233266,-0.6705224,0.347796,-0.6417348,-0.5194305,-0.517397,-1.1493938,1.1856068,-0.12560426,-0.62676144,-0.49155542,0.34135044,-0.46251234,0.08878997,1.3487663,-0.7784476,-0.27300414,1.5686913,0.20283008,0.4963985,-0.24509059,1.370335,-0.78687215,-0.067472145,0.45805794,0.20773786,1.4280399,-0.6282259,-1.313639,-0.058557108,-2.049851,-0.77396846,0.56845975,-0.22015613,-1.5866451,-0.37414074,-1.6647626,0.2800094,2.6833172,0.42505747,-0.6747645,1.5974755,0.4535794,-0.9413501,-0.06054478,1.4673159,-0.5125477,-0.5582864,0.51156515,-0.704974,0.3255095,-1.334582,-1.4014364,1.8830764,0.49065912,0.16869101,-1.7907287,-0.33022738,0.1740301,1.5637223,-0.59550273,0.64188343,-0.4367774,-0.327352,-0.660402,1.185736,2.1237116,-0.8467784,1.0151266,-0.45136803,-0.20361866,0.6576867,-0.9064344,1.6888137,0.0013237596,-0.4709822,-0.84426117,0.34646484,-0.1136557,-0.65631163,-1.2853498,0.118429855,-1.6827676,-0.29501447,0.6390523,-1.2205023,2.4466314,-1.0248914,-0.79556227,-1.4991325,1.6271772,0.0076208436,-1.7395796,0.29582834,0.76161444,-1.6125742,0.8361197,-0.18343356,2.0399985,-0.98259425,-1.6544824,-0.8679302,0.84174275,0.46967,-0.907023,-1.696422,-0.9854161,0.779875,0.9270991,1.746654,1.8154048,-0.40930125,0.33106673,0.3448943,-0.1389418,0.73126465,0.41486412,-1.3482468,0.72820723,0.047279187,0.02612134,-2.155506,1.4200315,-0.45637453
